{"learner":{"attributes":{"scikit_learn":"{\"n_estimators\": 100, \"objective\": \"multi:softprob\", \"max_depth\": null, \"learning_rate\": 0.2, \"verbosity\": null, \"booster\": null, \"tree_method\": null, \"gamma\": null, \"min_child_weight\": null, \"max_delta_step\": null, \"subsample\": null, \"colsample_bytree\": null, \"colsample_bylevel\": null, \"colsample_bynode\": null, \"reg_alpha\": null, \"reg_lambda\": null, \"scale_pos_weight\": null, \"base_score\": null, \"missing\": NaN, \"num_parallel_tree\": null, \"kwargs\": {\"use_label_encoder\": false, \"eval_metric\": \"mlogloss\"}, \"random_state\": null, \"n_jobs\": null, \"monotone_constraints\": null, \"interaction_constraints\": null, \"importance_type\": \"gain\", \"gpu_id\": null, \"validate_parameters\": null, \"classes_\": [0, 1, 2, 3, 6], \"n_classes_\": 5, \"_le\": {\"classes_\": [0, 1, 2, 3, 6]}, \"_features_count\": 11623, \"type\": \"XGBClassifier\"}"},"gradient_booster":{"model":{"gbtree_model_param":{"num_trees":"500","size_leaf_vector":"0"},"tree_info":[0,1,2,3,4,0,1,2,3,4,0,1,2,3,4,0,1,2,3,4,0,1,2,3,4,0,1,2,3,4,0,1,2,3,4,0,1,2,3,4,0,1,2,3,4,0,1,2,3,4,0,1,2,3,4,0,1,2,3,4,0,1,2,3,4,0,1,2,3,4,0,1,2,3,4,0,1,2,3,4,0,1,2,3,4,0,1,2,3,4,0,1,2,3,4,0,1,2,3,4,0,1,2,3,4,0,1,2,3,4,0,1,2,3,4,0,1,2,3,4,0,1,2,3,4,0,1,2,3,4,0,1,2,3,4,0,1,2,3,4,0,1,2,3,4,0,1,2,3,4,0,1,2,3,4,0,1,2,3,4,0,1,2,3,4,0,1,2,3,4,0,1,2,3,4,0,1,2,3,4,0,1,2,3,4,0,1,2,3,4,0,1,2,3,4,0,1,2,3,4,0,1,2,3,4,0,1,2,3,4,0,1,2,3,4,0,1,2,3,4,0,1,2,3,4,0,1,2,3,4,0,1,2,3,4,0,1,2,3,4,0,1,2,3,4,0,1,2,3,4,0,1,2,3,4,0,1,2,3,4,0,1,2,3,4,0,1,2,3,4,0,1,2,3,4,0,1,2,3,4,0,1,2,3,4,0,1,2,3,4,0,1,2,3,4,0,1,2,3,4,0,1,2,3,4,0,1,2,3,4,0,1,2,3,4,0,1,2,3,4,0,1,2,3,4,0,1,2,3,4,0,1,2,3,4,0,1,2,3,4,0,1,2,3,4,0,1,2,3,4,0,1,2,3,4,0,1,2,3,4,0,1,2,3,4,0,1,2,3,4,0,1,2,3,4,0,1,2,3,4,0,1,2,3,4,0,1,2,3,4,0,1,2,3,4,0,1,2,3,4,0,1,2,3,4,0,1,2,3,4,0,1,2,3,4,0,1,2,3,4,0,1,2,3,4,0,1,2,3,4,0,1,2,3,4,0,1,2,3,4,0,1,2,3,4,0,1,2,3,4,0,1,2,3,4,0,1,2,3,4,0,1,2,3,4,0,1,2,3,4,0,1,2,3,4,0,1,2,3,4,0,1,2,3,4,0,1,2,3,4,0,1,2,3,4,0,1,2,3,4],"trees":[{"base_weights":[4.50325310230255127e-01,2.35011982917785645e+00,4.39794450998306274e-01,2.21413707733154297e+00,4.28396224975585938e-01,7.69230723381042480e-01,2.30158710479736328e+00,2.34718823432922363e+00,4.17853862047195435e-01,2.29016780853271484e+00,4.07313644886016846e-01,2.19912457466125488e+00,3.96205395460128784e-01,2.28606343269348145e+00,3.85661751031875610e-01],"default_left":[false,false,false,false,false,false,false,false,false,false,false,false,false,false,false],"id":0,"leaf_child_counts":[0,0,0,0,0,0,0,0,0,0,0,0,0,0,0],"left_children":[1,-1,3,5,7,-1,-1,-1,9,-1,11,-1,13,-1,-1],"loss_changes":[6.03374023437500000e+01,0.00000000000000000e+00,6.07738647460937500e+01,6.60659790039062500e-01,6.03856201171875000e+01,0.00000000000000000e+00,0.00000000000000000e+00,0.00000000000000000e+00,5.86317138671875000e+01,0.00000000000000000e+00,5.88919677734375000e+01,0.00000000000000000e+00,5.86039428710937500e+01,0.00000000000000000e+00,0.00000000000000000e+00],"parents":[2147483647,0,0,2,2,3,3,4,4,8,8,10,10,12,12],"right_children":[2,-1,4,6,8,-1,-1,-1,10,-1,12,-1,14,-1,-1],"split_conditions":[1.95127344131469727e+00,4.70023959875106812e-01,1.94896721839904785e+00,1.74631208181381226e-01,1.88539981842041016e+00,1.53846144676208496e-01,4.60317432880401611e-01,4.69437658786773682e-01,5.75572192668914795e-01,4.58033561706542969e-01,1.65804862976074219e+00,4.39824908971786499e-01,1.95157527923583984e+00,4.57212686538696289e-01,7.71323516964912415e-02],"split_indices":[8064,0,6470,5012,6334,0,0,0,580,0,726,0,2820,0,0],"sum_hessian":[3.06656030273437500e+03,1.56800012588500977e+01,3.05088012695312500e+03,1.82400016784667969e+01,3.03264013671875000e+03,1.60000014305114746e+00,1.66400012969970703e+01,1.53600006103515625e+01,3.01728027343750000e+03,1.56800012588500977e+01,3.00160009765625000e+03,1.72800006866455078e+01,2.98432031250000000e+03,1.53600006103515625e+01,2.96896020507812500e+03],"tree_param":{"num_deleted":"0","num_feature":"11623","num_nodes":"15","size_leaf_vector":"0"}},{"base_weights":[5.93435764312744141e-01,2.37006235122680664e+00,5.82031369209289551e-01,2.26993846893310547e+00,5.70945858955383301e-01,9.58904087543487549e-01,2.35827660560607910e+00,2.20430088043212891e+00,5.60673832893371582e-01,2.27735352516174316e+00,5.51486730575561523e-01,2.11018705368041992e+00,5.41238784790039062e-01,2.24018454551696777e+00,6.16438329219818115e-01,2.27272725105285645e+00,5.32065510749816895e-01],"default_left":[false,false,false,false,false,false,false,false,false,false,false,true,false,false,false,false,false],"id":1,"leaf_child_counts":[0,0,0,0,0,0,0,0,0,0,0,0,0,0,0,0,0],"left_children":[1,-1,3,5,7,-1,-1,-1,9,-1,11,13,15,-1,-1,-1,-1],"loss_changes":[6.07735595703125000e+01,0.00000000000000000e+00,5.57607421875000000e+01,3.95965576171875000e-03,4.96138916015625000e+01,0.00000000000000000e+00,0.00000000000000000e+00,0.00000000000000000e+00,4.62653808593750000e+01,0.00000000000000000e+00,4.67532958984375000e+01,2.35516357421875000e+00,4.61267089843750000e+01,0.00000000000000000e+00,0.00000000000000000e+00,0.00000000000000000e+00,0.00000000000000000e+00],"parents":[2147483647,0,0,2,2,3,3,4,4,8,8,10,10,11,11,12,12],"right_children":[2,-1,4,6,8,-1,-1,-1,10,-1,12,14,16,-1,-1,-1,-1],"split_conditions":[1.36913824081420898e+00,4.74012464284896851e-01,1.78175354003906250e+00,5.00106215476989746e-02,1.41053485870361328e+00,1.91780820488929749e-01,4.71655339002609253e-01,4.40860182046890259e-01,1.95218944549560547e+00,4.55470710992813110e-01,1.94896721839904785e+00,1.47748142480850220e-01,1.67264890670776367e+00,4.48036909103393555e-01,1.23287670314311981e-01,4.54545468091964722e-01,1.06413103640079498e-01],"split_indices":[2044,0,9927,3741,8833,0,0,0,8598,0,4286,5012,10990,0,0,0,0],"sum_hessian":[3.06656030273437500e+03,1.82400016784667969e+01,3.04832031250000000e+03,1.85600013732910156e+01,3.02976025390625000e+03,1.92000007629394531e+00,1.66400012969970703e+01,1.76000003814697266e+01,3.01216015625000000e+03,1.47200012207031250e+01,2.99744018554687500e+03,1.82400016784667969e+01,2.97920019531250000e+03,1.63200016021728516e+01,1.92000007629394531e+00,1.44000005722045898e+01,2.96480029296875000e+03],"tree_param":{"num_deleted":"0","num_feature":"11623","num_nodes":"17","size_leaf_vector":"0"}},{"base_weights":[-3.32381427288055420e-01,-3.45950663089752197e-01,2.17026376724243164e+00,2.31003022193908691e+00,-3.57335537672042847e-01,1.69438660144805908e+00,-3.70282083749771118e-01,4.93827134370803833e-01,1.82352936267852783e+00,2.20538711547851562e+00,-3.80322843790054321e-01,5.26315748691558838e-01,1.89567422866821289e+00,2.27106213569641113e+00,-3.89844954013824463e-01,2.12121200561523438e+00,-3.99692267179489136e-01],"default_left":[true,false,false,false,false,false,false,false,false,false,false,false,false,false,false,false,false],"id":2,"leaf_child_counts":[0,0,0,0,0,0,0,0,0,0,0,0,0,0,0,0,0],"left_children":[1,3,-1,-1,5,7,9,-1,11,-1,13,-1,-1,-1,15,-1,-1],"loss_changes":[1.04922180175781250e+02,9.31080322265625000e+01,0.00000000000000000e+00,0.00000000000000000e+00,8.13707580566406250e+01,2.08253097534179688e+00,7.89791870117187500e+01,0.00000000000000000e+00,5.93261718750000000e-01,0.00000000000000000e+00,7.68933105468750000e+01,0.00000000000000000e+00,0.00000000000000000e+00,0.00000000000000000e+00,7.50461730957031250e+01,0.00000000000000000e+00,0.00000000000000000e+00],"parents":[2147483647,0,0,1,1,4,4,5,5,6,6,8,8,10,10,14,14],"right_children":[2,4,-1,-1,6,8,10,-1,12,-1,14,-1,-1,-1,16,-1,-1],"split_conditions":[2.05583021044731140e-01,1.57469606399536133e+00,4.34052765369415283e-01,4.62006062269210815e-01,1.94841790199279785e+00,1.03534802794456482e-01,1.61578392982482910e+00,9.87654253840446472e-02,1.68094724416732788e-01,4.41077440977096558e-01,1.95734763145446777e+00,1.05263151228427887e-01,3.79134863615036011e-01,4.54212427139282227e-01,1.53837490081787109e+00,4.24242407083511353e-01,-7.99384564161300659e-02],"split_indices":[1506,10092,0,0,6066,3745,6921,0,5012,0,6017,0,0,0,6761,0,0],"sum_hessian":[3.06656030273437500e+03,3.05088012695312500e+03,1.56800012588500977e+01,1.21600008010864258e+01,3.03872021484375000e+03,1.82400016784667969e+01,3.02048022460937500e+03,2.24000024795532227e+00,1.60000019073486328e+01,1.08800010681152344e+01,3.00960009765625000e+03,1.28000009059906006e+00,1.47200012207031250e+01,9.92000102996826172e+00,2.99968017578125000e+03,1.08800010681152344e+01,2.98880029296875000e+03],"tree_param":{"num_deleted":"0","num_feature":"11623","num_nodes":"17","size_leaf_vector":"0"}},{"base_weights":[-1.34178295731544495e-01,2.35827660560607910e+00,-1.48545354604721069e-01,2.27272725105285645e+00,-1.60776138305664062e-01,2.31884050369262695e+00,-1.72039732336997986e-01,2.25212454795837402e+00,-1.83352142572402954e-01,2.24035596847534180e+00,-1.94188341498374939e-01,2.18130302429199219e+00,-2.05360129475593567e-01],"default_left":[false,false,false,false,false,false,false,false,false,false,false,false,false],"id":3,"leaf_child_counts":[0,0,0,0,0,0,0,0,0,0,0,0,0],"left_children":[1,-1,3,-1,5,-1,7,-1,9,-1,11,-1,-1],"loss_changes":[1.10197265625000000e+02,0.00000000000000000e+00,9.07156066894531250e+01,0.00000000000000000e+00,8.52070541381835938e+01,0.00000000000000000e+00,8.33328704833984375e+01,0.00000000000000000e+00,7.95048217773437500e+01,0.00000000000000000e+00,8.00134277343750000e+01,0.00000000000000000e+00,0.00000000000000000e+00],"parents":[2147483647,0,0,2,2,4,4,6,6,8,8,10,10],"right_children":[2,-1,4,-1,6,-1,8,-1,10,-1,12,-1,-1],"split_conditions":[1.95038676261901855e+00,4.71655339002609253e-01,1.95250177383422852e+00,4.54545468091964722e-01,1.44207763671875000e+00,4.63768094778060913e-01,1.95379042625427246e+00,4.50424909591674805e-01,1.37806487083435059e+00,4.48071211576461792e-01,1.95379042625427246e+00,4.36260610818862915e-01,-4.10720258951187134e-02],"split_indices":[5354,0,4415,0,7036,0,7589,0,2454,0,238,0,0],"sum_hessian":[3.06656030273437500e+03,1.66400012969970703e+01,3.04992016601562500e+03,1.44000005722045898e+01,3.03552026367187500e+03,1.28000011444091797e+01,3.02272021484375000e+03,1.31200008392333984e+01,3.00960009765625000e+03,1.24800004959106445e+01,2.99712011718750000e+03,1.31200008392333984e+01,2.98400024414062500e+03],"tree_param":{"num_deleted":"0","num_feature":"11623","num_nodes":"13","size_leaf_vector":"0"}},{"base_weights":[-5.77201366424560547e-01,-6.24204397201538086e-01,-4.83059734106063843e-01,-6.24693810939788818e-01,8.77192988991737366e-02,-6.24267399311065674e-01,2.12888360023498535e-01,-6.12648189067840576e-01,5.47504007816314697e-01,-5.87138831615447998e-01,1.13271749019622803e+00,-6.09990358352661133e-01,8.77192988991737366e-02,-5.03875970840454102e-01,1.22631835937500000e+00,1.29509949684143066e+00,-8.26446264982223511e-02],"default_left":[false,true,false,false,false,false,false,false,false,true,false,false,false,false,true,false,false],"id":4,"leaf_child_counts":[0,0,0,0,0,0,0,0,0,0,0,0,0,0,0,0,0],"left_children":[1,3,5,-1,-1,-1,7,-1,9,11,13,-1,-1,-1,15,-1,-1],"loss_changes":[1.32723388671875000e+01,7.66418457031250000e-01,1.00957275390625000e+02,0.00000000000000000e+00,0.00000000000000000e+00,0.00000000000000000e+00,4.83454971313476562e+01,0.00000000000000000e+00,8.31349029541015625e+01,7.15400695800781250e-01,1.32221069335937500e+01,0.00000000000000000e+00,0.00000000000000000e+00,0.00000000000000000e+00,7.14032745361328125e+00,0.00000000000000000e+00,0.00000000000000000e+00],"parents":[2147483647,0,0,1,1,2,2,6,6,8,8,9,9,10,10,14,14],"right_children":[2,4,6,-1,-1,-1,8,-1,10,12,14,-1,-1,-1,16,-1,-1],"split_conditions":[5.73512196540832520e-01,3.47714424133300781e-01,7.96252489089965820e-01,-1.24938763678073883e-01,1.75438597798347473e-02,-1.24853484332561493e-01,1.18437838554382324e+00,-1.22529640793800354e-01,1.21088814735412598e+00,1.95984855294227600e-01,8.12516987323760986e-01,-1.21998071670532227e-01,1.75438597798347473e-02,-1.00775197148323059e-01,1.53960973024368286e-01,2.59019911289215088e-01,-1.65289249271154404e-02],"split_indices":[3741,2936,3745,0,0,0,3747,0,3748,4321,4075,0,0,0,7082,0,0],"sum_hessian":[3.06656030273437500e+03,2.04160009765625000e+03,1.02496008300781250e+03,2.04032019042968750e+03,1.28000009059906006e+00,8.52160034179687500e+02,1.72800018310546875e+02,4.96000022888183594e+01,1.23200012207031250e+02,4.19200019836425781e+01,8.12800064086914062e+01,4.06400032043457031e+01,1.28000009059906006e+00,4.16000032424926758e+00,7.71200027465820312e+01,7.32800064086914062e+01,3.84000015258789062e+00],"tree_param":{"num_deleted":"0","num_feature":"11623","num_nodes":"17","size_leaf_vector":"0"}},{"base_weights":[3.70883196592330933e-01,1.97766137123107910e+00,3.61184060573577881e-01,2.14510941505432129e+00,3.52615118026733398e-01,3.43969941139221191e-01,2.14509963989257812e+00,1.99583745002746582e+00,3.34723770618438721e-01,4.77543026208877563e-01,2.09330391883850098e+00,2.09008479118347168e+00,3.26006293296813965e-01,1.95026230812072754e+00,3.16471427679061890e-01],"default_left":[false,false,false,false,true,false,false,false,false,false,false,false,false,false,false],"id":5,"leaf_child_counts":[0,0,0,0,0,0,0,0,0,0,0,0,0,0,0],"left_children":[1,-1,3,-1,5,7,-1,9,11,-1,-1,-1,13,-1,-1],"loss_changes":[5.01360778808593750e+01,0.00000000000000000e+00,4.88408813476562500e+01,0.00000000000000000e+00,4.93191528320312500e+01,4.84502563476562500e+01,0.00000000000000000e+00,1.61952972412109375e+00,4.82742614746093750e+01,0.00000000000000000e+00,0.00000000000000000e+00,0.00000000000000000e+00,4.87031250000000000e+01,0.00000000000000000e+00,0.00000000000000000e+00],"parents":[2147483647,0,0,2,2,4,4,5,5,7,7,8,8,12,12],"right_children":[2,-1,4,-1,6,8,-1,10,12,-1,-1,-1,14,-1,-1],"split_conditions":[1.94981074333190918e+00,3.95532280206680298e-01,1.47806787490844727e+00,4.29021894931793213e-01,2.28766128420829773e-01,1.95127344131469727e+00,4.29019927978515625e-01,8.13444778323173523e-02,1.41530823707580566e+00,9.55086052417755127e-02,4.18660789728164673e-01,4.18016970157623291e-01,1.59698653221130371e+00,3.90052467584609985e-01,6.32942840456962585e-02],"split_indices":[5859,0,4440,0,1366,865,0,3745,93,0,0,0,6483,0,0],"sum_hessian":[3.26191137695312500e+03,1.83545761108398438e+01,3.24355664062500000e+03,1.43137025833129883e+01,3.22924316406250000e+03,3.21492919921875000e+03,1.43137512207031250e+01,1.66991558074951172e+01,3.19823022460937500e+03,1.36320674419403076e+00,1.53359498977661133e+01,1.46247081756591797e+01,3.18360546875000000e+03,1.73918132781982422e+01,3.16621362304687500e+03],"tree_param":{"num_deleted":"0","num_feature":"11623","num_nodes":"15","size_leaf_vector":"0"}},{"base_weights":[4.77164715528488159e-01,5.95960021018981934e-01,3.73987466096878052e-01,1.69312107563018799e+00,5.81859052181243896e-01,1.95308804512023926e+00,3.61914336681365967e-01,1.77292823791503906e+00,1.59960091114044189e-01,5.70841789245605469e-01,1.86048126220703125e+00,3.46629112958908081e-01,1.45811688899993896e+00,1.84690797328948975e+00,6.85472488403320312e-01,1.88030946254730225e+00,5.59905648231506348e-01,1.99562454223632812e+00,3.36516678333282471e-01,1.57072353363037109e+00,6.15269601345062256e-01,1.82250261306762695e+00,5.48349559307098389e-01,3.25868070125579834e-01,1.87006986141204834e+00,9.60669994354248047e-01,1.93932127952575684e+00,4.29028458893299103e-02,8.59393119812011719e-01,1.93766403198242188e+00,5.37588655948638916e-01,1.85915470123291016e+00,3.15473258495330811e-01,1.57397532463073730e+00,2.01470777392387390e-01],"default_left":[false,false,false,true,true,false,true,true,false,false,false,false,true,false,false,false,false,false,true,false,false,false,false,false,false,false,false,false,false,false,false,false,false,false,false],"id":6,"leaf_child_counts":[0,0,0,0,0,0,0,0,0,0,0,0,0,0,0,0,0,0,0,0,0,0,0,0,0,0,0,0,0,0,0,0,0,0,0],"left_children":[1,3,5,7,9,-1,11,13,-1,15,-1,17,19,-1,-1,-1,21,-1,23,25,27,-1,29,31,-1,33,-1,-1,-1,-1,-1,-1,-1,-1,-1],"loss_changes":[4.05958862304687500e+01,2.29374389648437500e+01,3.33229675292968750e+01,2.05310440063476562e+00,2.04653320312500000e+01,0.00000000000000000e+00,2.91966247558593750e+01,1.86378479003906250e-01,0.00000000000000000e+00,2.06653442382812500e+01,0.00000000000000000e+00,2.85033874511718750e+01,1.31766510009765625e+00,0.00000000000000000e+00,0.00000000000000000e+00,0.00000000000000000e+00,2.09659729003906250e+01,0.00000000000000000e+00,2.78071594238281250e+01,2.76589202880859375e+00,5.89148998260498047e-01,0.00000000000000000e+00,2.12822570800781250e+01,2.69760589599609375e+01,0.00000000000000000e+00,4.21566772460937500e+00,0.00000000000000000e+00,0.00000000000000000e+00,0.00000000000000000e+00,0.00000000000000000e+00,0.00000000000000000e+00,0.00000000000000000e+00,0.00000000000000000e+00,0.00000000000000000e+00,0.00000000000000000e+00],"parents":[2147483647,0,0,1,1,2,2,3,3,4,4,6,6,7,7,9,9,11,11,12,12,16,16,18,18,19,19,20,20,22,22,23,23,25,25],"right_children":[2,4,6,8,10,-1,12,14,-1,16,-1,18,20,-1,-1,-1,22,-1,24,26,28,-1,30,32,-1,34,-1,-1,-1,-1,-1,-1,-1,-1,-1],"split_conditions":[9.82337445020675659e-02,8.15139651298522949e-01,1.68160343170166016e+00,1.89388319849967957e-01,1.94225728511810303e-01,3.90617609024047852e-01,2.18372702598571777e-01,1.28441661596298218e-01,3.19920182228088379e-02,8.50720345973968506e-01,3.72096270322799683e-01,1.31684494018554688e+00,1.25356614589691162e-01,3.69381606578826904e-01,1.37094497680664062e-01,3.76061886548995972e-01,4.02910828590393066e-01,3.99124920368194580e-01,2.14339017868041992e-01,3.12040448188781738e-01,1.56775176525115967e-01,3.64500522613525391e-01,8.55781435966491699e-01,1.45582413673400879e+00,3.74013990163803101e-01,2.63024300336837769e-01,3.87864261865615845e-01,8.58056917786598206e-03,1.71878620982170105e-01,3.87532800436019897e-01,1.07517734169960022e-01,3.71830940246582031e-01,6.30946531891822815e-02,3.14795076847076416e-01,4.02941554784774780e-02],"split_indices":[3741,5054,7124,7424,11429,0,4567,5908,0,7724,0,3775,3741,0,0,0,8774,0,4842,4567,3741,0,10955,6336,0,4567,0,0,0,0,0,0,0,0,0],"sum_hessian":[3.32924755859375000e+03,1.54528015136718750e+03,1.78396728515625000e+03,1.80973739624023438e+01,1.52718286132812500e+03,1.23160858154296875e+01,1.77165124511718750e+03,1.70532951354980469e+01,1.04407930374145508e+00,1.51557031250000000e+03,1.16124839782714844e+01,1.74858544921875000e+03,2.30657444000244141e+01,1.53131628036499023e+01,1.74013209342956543e+00,1.11368455886840820e+01,1.50443347167968750e+03,9.46106815338134766e+00,1.73912438964843750e+03,1.95854797363281250e+01,3.48026418685913086e+00,1.22233839035034180e+01,1.49221008300781250e+03,1.72833581542968750e+03,1.07886219024658203e+01,8.73491096496582031e+00,1.08505687713623047e+01,1.39210569858551025e+00,2.08815860748291016e+00,1.00927667617797852e+01,1.48211730957031250e+03,1.04406147003173828e+01,1.71789514160156250e+03,4.23806285858154297e+00,4.49684762954711914e+00],"tree_param":{"num_deleted":"0","num_feature":"11623","num_nodes":"35","size_leaf_vector":"0"}},{"base_weights":[-3.06393980979919434e-01,2.40777969360351562e+00,-3.15784156322479248e-01,-3.28975826501846313e-01,1.61493992805480957e+00,2.25947570800781250e+00,-3.38797062635421753e-01,2.41106843948364258e+00,-3.48099827766418457e-01,2.29250264167785645e+00,-3.57415616512298584e-01,2.37508320808410645e+00,-3.66492867469787598e-01],"default_left":[false,false,true,false,false,false,false,false,false,false,false,false,false],"id":7,"leaf_child_counts":[0,0,0,0,0,0,0,0,0,0,0,0,0],"left_children":[1,-1,3,5,-1,-1,7,-1,9,-1,11,-1,-1],"loss_changes":[7.47664794921875000e+01,0.00000000000000000e+00,7.42550659179687500e+01,7.38733215332031250e+01,0.00000000000000000e+00,0.00000000000000000e+00,7.41498718261718750e+01,0.00000000000000000e+00,7.10997009277343750e+01,0.00000000000000000e+00,7.15065307617187500e+01,0.00000000000000000e+00,0.00000000000000000e+00],"parents":[2147483647,0,0,2,2,3,3,6,6,8,8,10,10],"right_children":[2,-1,4,6,-1,-1,8,-1,10,-1,12,-1,-1],"split_conditions":[1.53403139114379883e+00,4.81555938720703125e-01,2.24893659353256226e-01,1.24576807022094727e+00,3.22988003492355347e-01,4.51895147562026978e-01,1.24414777755737305e+00,4.82213705778121948e-01,1.44926738739013672e+00,4.58500534296035767e-01,1.95853567123413086e+00,4.75016653537750244e-01,-7.32985734939575195e-02],"split_indices":[10005,0,1506,4224,0,0,3963,0,10244,0,4854,0,0],"sum_hessian":[2.90272705078125000e+03,9.12729454040527344e+00,2.89359985351562500e+03,2.87478735351562500e+03,1.88123321533203125e+01,1.00006303787231445e+01,2.86478686523437500e+03,8.78838348388671875e+00,2.85599829101562500e+03,9.17868137359619141e+00,2.84681982421875000e+03,8.56269836425781250e+00,2.83825708007812500e+03],"tree_param":{"num_deleted":"0","num_feature":"11623","num_nodes":"13","size_leaf_vector":"0"}},{"base_weights":[-1.18281804025173187e-01,2.15430450439453125e+00,-1.29392087459564209e-01,8.30318570137023926e-01,2.32026147842407227e+00,-1.43617168068885803e-01,1.70775115489959717e+00,2.36637639999389648e+00,-1.53728932142257690e-01,1.00354775786399841e-01,1.79554879665374756e+00,2.30211448669433594e+00,-1.64163708686828613e-01,1.84521102905273438e+00,5.45026361942291260e-01,1.87899816036224365e+00,-1.76883146166801453e-01,5.45026361942291260e-01,1.94495213031768799e+00,2.29757857322692871e+00,-1.87509283423423767e-01],"default_left":[false,false,true,false,false,false,false,false,false,false,true,false,false,false,false,false,false,false,false,false,false],"id":8,"leaf_child_counts":[0,0,0,0,0,0,0,0,0,0,0,0,0,0,0,0,0,0,0,0,0],"left_children":[1,3,5,-1,-1,7,9,-1,11,-1,13,-1,15,-1,-1,17,19,-1,-1,-1,-1],"loss_changes":[7.58491668701171875e+01,1.28531646728515625e+00,7.81068420410156250e+01,0.00000000000000000e+00,0.00000000000000000e+00,7.54241638183593750e+01,3.06143188476562500e+00,0.00000000000000000e+00,7.58849334716796875e+01,0.00000000000000000e+00,3.43261718750000000e-01,0.00000000000000000e+00,7.66053390502929688e+01,0.00000000000000000e+00,0.00000000000000000e+00,5.45074462890625000e-01,7.71488342285156250e+01,0.00000000000000000e+00,0.00000000000000000e+00,0.00000000000000000e+00,0.00000000000000000e+00],"parents":[2147483647,0,0,1,1,2,2,5,5,6,6,8,8,10,10,12,12,15,15,16,16],"right_children":[2,4,6,-1,-1,8,10,-1,12,-1,14,-1,16,-1,-1,18,20,-1,-1,-1,-1],"split_conditions":[1.72321510314941406e+00,2.52376079559326172e-01,1.90017923712730408e-01,1.66063711047172546e-01,4.64052289724349976e-01,1.95585846900939941e+00,9.94861483573913574e-01,4.73275274038314819e-01,1.54457426071166992e+00,2.00709551572799683e-02,1.47187590599060059e-01,4.60422903299331665e-01,1.94924569129943848e+00,3.69042217731475830e-01,1.09005272388458252e-01,2.30273663997650146e-01,1.95514917373657227e+00,1.09005272388458252e-01,3.88990432024002075e-01,4.59515720605850220e-01,-3.75018566846847534e-02],"split_indices":[2269,2269,400,0,0,2881,4944,0,4109,0,4238,0,8996,0,0,5012,11510,0,0,0,0],"sum_hessian":[2.99199511718750000e+03,1.36177186965942383e+01,2.97837744140625000e+03,2.18547344207763672e+00,1.14322452545166016e+01,2.95640771484375000e+03,2.19697628021240234e+01,1.09274139404296875e+01,2.94548022460937500e+03,1.24885070323944092e+00,2.07209129333496094e+01,1.15330638885498047e+01,2.93394702148437500e+03,1.94720611572265625e+01,1.24885070323944092e+00,1.72441158294677734e+01,2.91670312500000000e+03,1.24885070323944092e+00,1.59952650070190430e+01,1.15514392852783203e+01,2.90515161132812500e+03],"tree_param":{"num_deleted":"0","num_feature":"11623","num_nodes":"21","size_leaf_vector":"0"}},{"base_weights":[-5.56083917617797852e-01,-6.06064438819885254e-01,-4.57815498113632202e-01,-6.06592059135437012e-01,8.80701020359992981e-02,-6.05997920036315918e-01,1.96237191557884216e-01,-5.94150304794311523e-01,4.73387300968170166e-01,-5.66856741905212402e-01,9.09260451793670654e-01,-5.91400027275085449e-01,9.67513993382453918e-02,-4.85315918922424316e-01,9.75559890270233154e-01,-4.45528268814086914e-01,1.01595258712768555e+00],"default_left":[false,true,false,false,false,false,false,false,false,true,false,false,false,false,false,false,false],"id":9,"leaf_child_counts":[0,0,0,0,0,0,0,0,0,0,0,0,0,0,0,0,0],"left_children":[1,3,5,-1,-1,-1,7,-1,9,11,13,-1,-1,-1,15,-1,-1],"loss_changes":[1.34614868164062500e+01,7.31323242187500000e-01,9.19175872802734375e+01,0.00000000000000000e+00,0.00000000000000000e+00,0.00000000000000000e+00,3.87712898254394531e+01,0.00000000000000000e+00,5.97532806396484375e+01,6.95580482482910156e-01,9.02172088623046875e+00,0.00000000000000000e+00,0.00000000000000000e+00,0.00000000000000000e+00,5.53785705566406250e+00,0.00000000000000000e+00,0.00000000000000000e+00],"parents":[2147483647,0,0,1,1,2,2,6,6,8,8,9,9,10,10,14,14],"right_children":[2,4,6,-1,-1,-1,8,-1,10,12,14,-1,-1,-1,16,-1,-1],"split_conditions":[5.73512196540832520e-01,3.47714424133300781e-01,7.96252489089965820e-01,-1.21318414807319641e-01,1.76140200346708298e-02,-1.21199585497379303e-01,1.18437838554382324e+00,-1.18830062448978424e-01,1.21088814735412598e+00,1.95984855294227600e-01,8.12516987323760986e-01,-1.18280008435249329e-01,1.93502809852361679e-02,-9.70631837844848633e-02,1.32099866867065430e+00,-8.91056582331657410e-02,2.03190520405769348e-01],"split_indices":[3741,2936,3745,0,0,0,3747,0,3748,4321,4075,0,0,0,1219,0,0],"sum_hessian":[2.79630126953125000e+03,1.85013354492187500e+03,9.46167846679687500e+02,1.84885437011718750e+03,1.27913177013397217e+00,7.71459228515625000e+02,1.74708618164062500e+02,4.50602531433105469e+01,1.29648361206054688e+02,3.81942939758300781e+01,9.14540710449218750e+01,3.69370079040527344e+01,1.25728750228881836e+00,3.86366724967956543e+00,8.75904006958007812e+01,2.14363002777099609e+00,8.54467773437500000e+01],"tree_param":{"num_deleted":"0","num_feature":"11623","num_nodes":"17","size_leaf_vector":"0"}},{"base_weights":[3.10120135545730591e-01,1.95132219791412354e+00,3.02138775587081909e-01,1.97924149036407471e+00,2.94234812259674072e-01,1.78006923198699951e+00,2.85517632961273193e-01,1.86654579639434814e+00,1.46391943097114563e-01,1.79959011077880859e+00,2.76856482028961182e-01,1.95167744159698486e+00,6.73417925834655762e-01,2.67192304134368896e-01,1.64747917652130127e+00,1.99367570877075195e+00,2.59514391422271729e-01,-3.37467938661575317e-01,1.75847077369689941e+00],"default_left":[false,false,false,false,false,true,false,true,false,false,true,false,false,false,false,false,false,false,false],"id":10,"leaf_child_counts":[0,0,0,0,0,0,0,0,0,0,0,0,0,0,0,0,0,0,0],"left_children":[1,-1,3,-1,5,7,9,11,-1,-1,13,-1,-1,15,17,-1,-1,-1,-1],"loss_changes":[4.42364807128906250e+01,0.00000000000000000e+00,4.45762939453125000e+01,0.00000000000000000e+00,4.34247131347656250e+01,2.49471282958984375e+00,4.37380065917968750e+01,5.67108154296875000e-01,0.00000000000000000e+00,0.00000000000000000e+00,4.40040283203125000e+01,0.00000000000000000e+00,0.00000000000000000e+00,4.36643218994140625e+01,5.72645187377929688e+00,0.00000000000000000e+00,0.00000000000000000e+00,0.00000000000000000e+00,0.00000000000000000e+00],"parents":[2147483647,0,0,2,2,4,4,5,5,6,6,7,7,10,10,13,13,14,14],"right_children":[2,-1,4,-1,6,8,10,12,-1,-1,14,-1,-1,16,18,-1,-1,-1,-1],"split_conditions":[1.57191061973571777e+00,3.90264451503753662e-01,1.95379042625427246e+00,3.95848304033279419e-01,1.95038676261901855e+00,1.14609301090240479e-01,1.95097470283508301e+00,1.43667519092559814e-01,2.92783882468938828e-02,3.59918028116226196e-01,2.06990823149681091e-01,3.90335500240325928e-01,1.34683594107627869e-01,1.95480227470397949e+00,4.91011440753936768e-01,3.98735135793685913e-01,5.19028790295124054e-02,-6.74935877323150635e-02,3.51694166660308838e-01],"split_indices":[3082,0,4649,0,4691,5012,3245,5908,0,0,9512,0,0,2843,4238,0,0,0,0],"sum_hessian":[3.42108984375000000e+03,1.53782949447631836e+01,3.40571142578125000e+03,1.48054828643798828e+01,3.39090600585937500e+03,1.85927238464355469e+01,3.37231323242187500e+03,1.75226421356201172e+01,1.07008099555969238e+00,1.80052185058593750e+01,3.35430810546875000e+03,1.57622175216674805e+01,1.76042556762695312e+00,3.33200927734375000e+03,2.22988452911376953e+01,1.36070995330810547e+01,3.31840209960937500e+03,1.07279217243194580e+00,2.12260532379150391e+01],"tree_param":{"num_deleted":"0","num_feature":"11623","num_nodes":"19","size_leaf_vector":"0"}},{"base_weights":[3.92169713973999023e-01,1.85589993000030518e+00,3.85021358728408813e-01,1.48078382015228271e+00,3.75470042228698730e-01,9.00980085134506226e-02,1.53386700153350830e+00,3.67844492197036743e-01,1.76566851139068604e+00,1.43614068627357483e-01,1.58234357833862305e+00,1.89646792411804199e+00,3.60896944999694824e-01,1.85259377956390381e+00,3.53794515132904053e-01,1.82101333141326904e+00,3.46531212329864502e-01],"default_left":[false,false,false,false,true,false,false,false,false,false,false,false,false,false,false,false,false],"id":11,"leaf_child_counts":[0,0,0,0,0,0,0,0,0,0,0,0,0,0,0,0,0],"left_children":[1,-1,3,5,7,-1,9,11,-1,-1,-1,-1,13,-1,15,-1,-1],"loss_changes":[3.63141479492187500e+01,0.00000000000000000e+00,3.63154296875000000e+01,2.08409118652343750e+00,3.63892822265625000e+01,0.00000000000000000e+00,1.72276306152343750e+00,3.62323913574218750e+01,0.00000000000000000e+00,0.00000000000000000e+00,0.00000000000000000e+00,0.00000000000000000e+00,3.60190124511718750e+01,0.00000000000000000e+00,3.60969238281250000e+01,0.00000000000000000e+00,0.00000000000000000e+00],"parents":[2147483647,0,0,2,2,3,3,4,4,6,6,7,7,12,12,14,14],"right_children":[2,-1,4,6,8,-1,10,12,-1,-1,-1,-1,14,-1,16,-1,-1],"split_conditions":[1.79849267005920410e+00,3.71179997920989990e-01,1.29146027565002441e+00,3.94677013158798218e-01,2.53350168466567993e-01,1.80196017026901245e-02,6.80515468120574951e-01,1.30088901519775391e+00,3.53133708238601685e-01,2.87228133529424667e-02,3.16468715667724609e-01,3.79293590784072876e-01,1.49523210525512695e+00,3.70518773794174194e-01,1.95346212387084961e+00,3.64202678203582764e-01,6.93062469363212585e-02],"split_indices":[2412,0,3502,6833,342,0,6159,624,0,0,0,0,7642,0,9241,0,0],"sum_hessian":[3.53792504882812500e+03,1.59371538162231445e+01,3.52198803710937500e+03,2.91033630371093750e+01,3.49288452148437500e+03,1.16921710968017578e+00,2.79341449737548828e+01,3.47508764648437500e+03,1.77970275878906250e+01,1.07472753524780273e+00,2.68594188690185547e+01,1.44922618865966797e+01,3.46059521484375000e+03,1.51675615310668945e+01,3.44542773437500000e+03,1.57420434951782227e+01,3.42968554687500000e+03],"tree_param":{"num_deleted":"0","num_feature":"11623","num_nodes":"17","size_leaf_vector":"0"}},{"base_weights":[-2.81859993934631348e-01,2.55872702598571777e+00,-2.90783792734146118e-01,-3.00600767135620117e-01,2.17596888542175293e+00,1.75977492332458496e+00,-3.12487661838531494e-01,2.28436899185180664e+00,6.34032130241394043e-01,-3.24523150920867920e-01,1.74237132072448730e+00,1.37803876399993896e+00,-3.38872045278549194e-01,1.41082540154457092e-01,1.85691976547241211e+00,-3.47322791814804077e-01,1.48193025588989258e+00,-3.49963754415512085e-01,1.85948896408081055e+00,1.98546099662780762e+00,1.52077391743659973e-01],"default_left":[false,false,true,false,true,false,true,false,false,false,false,false,true,false,true,false,false,false,false,false,false],"id":12,"leaf_child_counts":[0,0,0,0,0,0,0,0,0,0,0,0,0,0,0,0,0,0,0,0,0],"left_children":[1,-1,3,5,7,-1,9,-1,-1,11,13,15,17,-1,19,-1,-1,-1,-1,-1,-1],"loss_changes":[7.05501556396484375e+01,0.00000000000000000e+00,6.71534729003906250e+01,6.75605010986328125e+01,3.91365051269531250e-01,0.00000000000000000e+00,6.78649902343750000e+01,0.00000000000000000e+00,0.00000000000000000e+00,6.65799255371093750e+01,2.67332458496093750e+00,4.60420227050781250e+00,6.61065979003906250e+01,0.00000000000000000e+00,2.95279693603515625e+00,0.00000000000000000e+00,0.00000000000000000e+00,0.00000000000000000e+00,0.00000000000000000e+00,0.00000000000000000e+00,0.00000000000000000e+00],"parents":[2147483647,0,0,2,2,3,3,4,4,6,6,9,9,10,10,11,11,12,12,14,14],"right_children":[2,-1,4,6,8,-1,10,-1,-1,12,14,16,18,-1,20,-1,-1,-1,-1,-1,-1],"split_conditions":[1.56318521499633789e+00,5.11745393276214600e-01,1.80364236235618591e-01,1.57469606399536133e+00,1.03226393461227417e-01,3.51954996585845947e-01,1.94834694266319275e-01,4.56873804330825806e-01,1.26806423068046570e-01,1.94841790199279785e+00,3.79899024963378906e-01,3.64366710186004639e-01,2.20635712146759033e-01,2.82165091484785080e-02,2.33405143022537231e-01,-6.94645568728446960e-02,2.96386063098907471e-01,-6.99927508831024170e-02,3.71897786855697632e-01,3.97092193365097046e-01,3.04154790937900543e-02],"split_indices":[6074,0,8677,10092,5908,0,4874,0,0,6066,4238,10411,5911,0,1873,0,0,0,0,0,0],"sum_hessian":[2.75281494140625000e+03,7.72617244720458984e+00,2.74508862304687500e+03,2.73508203125000000e+03,1.00067024230957031e+01,1.48454723358154297e+01,2.72023657226562500e+03,8.89955997467041016e+00,1.10714256763458252e+00,2.70523388671875000e+03,1.50027284622192383e+01,2.18144187927246094e+01,2.68341943359375000e+03,1.15055882930755615e+00,1.38521699905395508e+01,1.10586166381835938e+00,2.07085571289062500e+01,2.67078491210937500e+03,1.26345043182373047e+01,1.27279138565063477e+01,1.12425601482391357e+00],"tree_param":{"num_deleted":"0","num_feature":"11623","num_nodes":"21","size_leaf_vector":"0"}},{"base_weights":[-1.03419318795204163e-01,-1.14540167152881622e-01,2.23826885223388672e+00,-1.26453861594200134e-01,2.07631969451904297e+00,-1.37009590864181519e-01,2.36316323280334473e+00,6.81117773056030273e-01,2.20620775222778320e+00,2.07916259765625000e+00,-1.48587629199028015e-01,6.18121385574340820e-01,2.24451804161071777e+00,1.67309713363647461e+00,-1.62708148360252380e-01,2.20205616950988770e+00,-1.73751428723335266e-01],"default_left":[true,true,false,true,false,false,false,false,false,false,false,false,false,false,false,false,false],"id":13,"leaf_child_counts":[0,0,0,0,0,0,0,0,0,0,0,0,0,0,0,0,0],"left_children":[1,3,-1,5,7,9,-1,-1,-1,11,13,-1,-1,-1,15,-1,-1],"loss_changes":[7.64299011230468750e+01,7.62746276855468750e+01,0.00000000000000000e+00,7.64664916992187500e+01,1.36204528808593750e+00,7.43633041381835938e+01,0.00000000000000000e+00,0.00000000000000000e+00,0.00000000000000000e+00,2.25251007080078125e+00,7.41500701904296875e+01,0.00000000000000000e+00,0.00000000000000000e+00,0.00000000000000000e+00,7.48321685791015625e+01,0.00000000000000000e+00,0.00000000000000000e+00],"parents":[2147483647,0,0,1,1,3,3,4,4,5,5,9,9,10,10,14,14],"right_children":[2,4,-1,6,8,10,-1,-1,-1,12,14,-1,-1,-1,16,-1,-1],"split_conditions":[2.01100543141365051e-01,2.09851458668708801e-01,4.47653770446777344e-01,2.19647169113159180e-01,9.03011411428451538e-02,1.95218944549560547e+00,4.72632646560668945e-01,1.36223554611206055e-01,4.41241562366485596e-01,1.11325964331626892e-01,1.95038676261901855e+00,1.23624280095100403e-01,4.48903620243072510e-01,3.34619432687759399e-01,1.43484187126159668e+00,4.40411239862442017e-01,-3.47502864897251129e-02],"split_indices":[5429,425,0,8723,3745,1185,0,0,0,3745,5354,0,0,0,5245,0,0],"sum_hessian":[2.92407568359375000e+03,2.91120141601562500e+03,1.28744192123413086e+01,2.89639331054687500e+03,1.48080425262451172e+01,2.88510571289062500e+03,1.12875967025756836e+01,1.79293847084045410e+00,1.30151033401489258e+01,1.40663318634033203e+01,2.87103930664062500e+03,1.91184687614440918e+00,1.21544847488403320e+01,2.11795787811279297e+01,2.84985986328125000e+03,1.23245697021484375e+01,2.83753515625000000e+03],"tree_param":{"num_deleted":"0","num_feature":"11623","num_nodes":"17","size_leaf_vector":"0"}},{"base_weights":[-5.38208127021789551e-01,-5.90956211090087891e-01,-4.36924755573272705e-01,-5.91529607772827148e-01,8.98492112755775452e-02,-5.91522216796875000e-01,1.79688811302185059e-01,-5.79259812831878662e-01,4.14138495922088623e-01,-5.50103485584259033e-01,7.54699945449829102e-01,-5.76336264610290527e-01,9.43864956498146057e-02,-4.69334214925765991e-01,8.05095076560974121e-01,-4.62482869625091553e-01,8.36828052997589111e-01],"default_left":[false,true,false,false,false,false,false,false,false,true,false,false,false,false,false,false,false],"id":14,"leaf_child_counts":[0,0,0,0,0,0,0,0,0,0,0,0,0,0,0,0,0],"left_children":[1,3,5,-1,-1,-1,7,-1,9,11,13,-1,-1,-1,15,-1,-1],"loss_changes":[1.33452148437500000e+01,7.05688476562500000e-01,8.35939178466796875e+01,0.00000000000000000e+00,0.00000000000000000e+00,0.00000000000000000e+00,3.16154232025146484e+01,0.00000000000000000e+00,4.48450622558593750e+01,6.61219596862792969e-01,6.57147216796875000e+00,0.00000000000000000e+00,0.00000000000000000e+00,0.00000000000000000e+00,4.28088378906250000e+00,0.00000000000000000e+00,0.00000000000000000e+00],"parents":[2147483647,0,0,1,1,2,2,6,6,8,8,9,9,10,10,14,14],"right_children":[2,4,6,-1,-1,-1,8,-1,10,12,14,-1,-1,-1,16,-1,-1],"split_conditions":[5.73512196540832520e-01,3.47714424133300781e-01,7.96252489089965820e-01,-1.18305921554565430e-01,1.79698430001735687e-02,-1.18304446339607239e-01,1.18437838554382324e+00,-1.15851961076259613e-01,1.21088814735412598e+00,1.95984855294227600e-01,8.12516987323760986e-01,-1.15267254412174225e-01,1.88772995024919510e-02,-9.38668474555015564e-02,6.17574810981750488e-01,-9.24965739250183105e-02,1.67365610599517822e-01],"split_indices":[3741,2936,3745,0,0,0,3747,0,3748,4321,4075,0,0,0,2216,0,0],"sum_hessian":[2.54526171875000000e+03,1.67045825195312500e+03,8.74803527832031250e+02,1.66918347167968750e+03,1.27473115921020508e+00,6.99472412109375000e+02,1.75331146240234375e+02,4.10324020385742188e+01,1.34298736572265625e+02,3.48921775817871094e+01,9.94065628051757812e+01,3.36291122436523438e+01,1.26306307315826416e+00,3.60213422775268555e+00,9.58044281005859375e+01,2.00830411911010742e+00,9.37961273193359375e+01],"tree_param":{"num_deleted":"0","num_feature":"11623","num_nodes":"17","size_leaf_vector":"0"}},{"base_weights":[2.62477666139602661e-01,1.82322514057159424e+00,2.55194664001464844e-01,1.64605724811553955e+00,2.46982187032699585e-01,4.06457763165235519e-03,1.77398669719696045e+00,1.70704102516174316e+00,2.39076986908912659e-01,1.82515692710876465e+00,5.41581749916076660e-01,1.75197911262512207e+00,5.53044140338897705e-01,1.87332463264465332e+00,2.32053354382514954e-01,2.23782777786254883e-01,1.63013768196105957e+00,1.85036420822143555e+00,2.16675072908401489e-01,6.45326852798461914e-01,1.89623248577117920e+00],"default_left":[false,false,false,false,false,false,true,true,false,false,false,false,false,false,true,false,false,false,false,false,false],"id":15,"leaf_child_counts":[0,0,0,0,0,0,0,0,0,0,0,0,0,0,0,0,0,0,0,0,0],"left_children":[1,-1,3,5,7,-1,9,11,13,-1,-1,-1,-1,-1,15,17,19,-1,-1,-1,-1],"loss_changes":[3.99031829833984375e+01,0.00000000000000000e+00,3.99840087890625000e+01,4.31580734252929688e+00,4.01794433593750000e+01,0.00000000000000000e+00,2.15400695800781250e-01,4.66918945312500000e-03,3.97247619628906250e+01,0.00000000000000000e+00,0.00000000000000000e+00,0.00000000000000000e+00,0.00000000000000000e+00,0.00000000000000000e+00,3.99308166503906250e+01,3.96652679443359375e+01,4.10515975952148438e+00,0.00000000000000000e+00,0.00000000000000000e+00,0.00000000000000000e+00,0.00000000000000000e+00],"parents":[2147483647,0,0,2,2,3,3,4,4,6,6,7,7,8,8,14,14,15,15,16,16],"right_children":[2,-1,4,6,8,-1,10,12,14,-1,-1,-1,-1,-1,16,18,20,-1,-1,-1,-1],"split_conditions":[1.95379042625427246e+00,3.64645034074783325e-01,1.88273119926452637e+00,3.78375262022018433e-01,1.95188045501708984e+00,8.12915561255067587e-04,1.76610887050628662e-01,1.52470484375953674e-01,1.18371224403381348e+00,3.65031391382217407e-01,1.08316354453563690e-01,3.50395828485488892e-01,1.10608831048011780e-01,3.74664932489395142e-01,1.95158883929252625e-01,1.95514917373657227e+00,2.69136548042297363e-01,3.70072841644287109e-01,4.33350168168544769e-02,1.29065379500389099e-01,3.79246503114700317e-01],"split_indices":[4810,0,3523,10411,4844,0,5012,3745,2640,0,0,0,0,0,4856,6956,3745,0,0,0,0],"sum_hessian":[3.55040380859375000e+03,1.53323602676391602e+01,3.53507153320312500e+03,1.95799865722656250e+01,3.51549145507812500e+03,1.48981189727783203e+00,1.80901756286621094e+01,1.77739620208740234e+01,3.49771752929687500e+03,1.69072074890136719e+01,1.18296825885772705e+00,1.66090011596679688e+01,1.16495990753173828e+00,1.38309535980224609e+01,3.48388647460937500e+03,3.46455151367187500e+03,1.93350124359130859e+01,1.39449939727783203e+01,3.45060644531250000e+03,4.84158754348754883e+00,1.44934244155883789e+01],"tree_param":{"num_deleted":"0","num_feature":"11623","num_nodes":"21","size_leaf_vector":"0"}},{"base_weights":[3.26802939176559448e-01,1.65431177616119385e+00,3.19993495941162109e-01,5.10647952556610107e-01,1.70537626743316650e+00,1.75759387016296387e+00,3.13704669475555420e-01,1.69707214832305908e+00,3.07162433862686157e-01,4.67602670192718506e-01,1.76608598232269287e+00,3.00021797418594360e-01,1.58022034168243408e+00,1.75439643859863281e+00,2.93734699487686157e-01,1.18946470320224762e-01,1.66005313396453857e+00,2.86722809076309204e-01,1.60380029678344727e+00],"default_left":[false,false,false,false,false,false,false,false,true,false,false,false,false,false,true,false,false,false,false],"id":16,"leaf_child_counts":[0,0,0,0,0,0,0,0,0,0,0,0,0,0,0,0,0,0,0],"left_children":[1,3,5,-1,-1,-1,7,9,11,-1,-1,13,15,-1,17,-1,-1,-1,-1],"loss_changes":[3.29817810058593750e+01,2.20012664794921875e-01,3.28045654296875000e+01,0.00000000000000000e+00,0.00000000000000000e+00,0.00000000000000000e+00,3.27352905273437500e+01,6.23020172119140625e-01,3.27837524414062500e+01,0.00000000000000000e+00,0.00000000000000000e+00,3.27622680664062500e+01,2.15577697753906250e+00,0.00000000000000000e+00,3.28387451171875000e+01,0.00000000000000000e+00,0.00000000000000000e+00,0.00000000000000000e+00,0.00000000000000000e+00],"parents":[2147483647,0,0,1,1,2,2,6,6,7,7,8,8,11,11,12,12,14,14],"right_children":[2,4,6,-1,-1,-1,8,10,12,-1,-1,14,16,-1,18,-1,-1,-1,-1],"split_conditions":[1.57127118110656738e+00,4.67213749885559082e-01,1.89267802238464355e+00,1.02129593491554260e-01,3.41075271368026733e-01,3.51518779993057251e-01,1.95379042625427246e+00,5.55511377751827240e-02,1.77365183830261230e-01,9.35205370187759399e-02,3.53217214345932007e-01,1.46330595016479492e+00,2.85133540630340576e-01,3.50879281759262085e-01,1.90316259860992432e-01,2.37892940640449524e-02,3.32010626792907715e-01,5.73445633053779602e-02,3.20760071277618408e-01],"split_indices":[10130,10411,7939,0,0,0,8509,3741,2128,0,0,9990,11479,0,9985,0,0,0,0],"sum_hessian":[3.70615307617187500e+03,1.76789379119873047e+01,3.68847412109375000e+03,1.22578310966491699e+00,1.64531555175781250e+01,1.48521747589111328e+01,3.67362182617187500e+03,1.60752983093261719e+01,3.65754663085937500e+03,1.26765871047973633e+00,1.48076391220092773e+01,3.63837451171875000e+03,1.91721458435058594e+01,1.44637365341186523e+01,3.62391064453125000e+03,1.12214481830596924e+00,1.80500011444091797e+01,3.60583007812500000e+03,1.80807228088378906e+01],"tree_param":{"num_deleted":"0","num_feature":"11623","num_nodes":"19","size_leaf_vector":"0"}},{"base_weights":[-2.58663177490234375e-01,-2.69106149673461914e-01,2.00290012359619141e+00,1.37706005573272705e+00,-2.83708721399307251e-01,-3.04247885942459106e-01,2.24950361251831055e+00,1.95519554615020752e+00,7.30029463768005371e-01,2.53651118278503418e+00,-2.91837155818939209e-01,8.50461363792419434e-01,2.12008166313171387e+00,3.59026551246643066e-01,1.59058368206024170e+00,-3.06034833192825317e-01,1.33657395839691162e+00,2.52457213401794434e+00,1.20046961307525635e+00,-5.42466863989830017e-02,6.19128227233886719e-01,1.79526436328887939e+00,-3.17218482494354248e-01,3.99751603603363037e-01,1.48017859458923340e+00,2.20744118094444275e-01,-3.67654353380203247e-01,7.57379472255706787e-01,7.52494409680366516e-02,1.85062491893768311e+00,-3.27867299318313599e-01],"default_left":[true,false,false,false,false,false,false,false,false,false,true,false,true,true,false,false,false,false,false,false,false,false,false,false,false,false,false,false,false,false,false],"id":17,"leaf_child_counts":[0,0,0,0,0,0,0,0,0,0,0,0,0,0,0,0,0,0,0,0,0,0,0,0,0,0,0,0,0,0,0],"left_children":[1,3,5,7,9,-1,-1,11,13,-1,15,-1,17,19,-1,21,-1,-1,23,25,27,-1,29,-1,-1,-1,-1,-1,-1,-1,-1],"loss_changes":[6.23597869873046875e+01,6.30451049804687500e+01,7.59707641601562500e+00,7.20936203002929688e+00,5.99839630126953125e+01,0.00000000000000000e+00,0.00000000000000000e+00,3.09501647949218750e-01,3.41688394546508789e+00,0.00000000000000000e+00,6.00075378417968750e+01,0.00000000000000000e+00,4.73880767822265625e-01,1.11062073707580566e+00,0.00000000000000000e+00,6.06444702148437500e+01,0.00000000000000000e+00,0.00000000000000000e+00,4.79922771453857422e-01,4.93950664997100830e-01,4.11446809768676758e-01,0.00000000000000000e+00,5.93272857666015625e+01,0.00000000000000000e+00,0.00000000000000000e+00,0.00000000000000000e+00,0.00000000000000000e+00,0.00000000000000000e+00,0.00000000000000000e+00,0.00000000000000000e+00,0.00000000000000000e+00],"parents":[2147483647,0,0,1,1,2,2,3,3,4,4,7,7,8,8,10,10,12,12,13,13,15,15,18,18,19,19,20,20,22,22],"right_children":[2,4,6,8,10,-1,-1,12,14,-1,16,-1,18,20,-1,22,-1,-1,24,26,28,-1,30,-1,-1,-1,-1,-1,-1,-1,-1],"split_conditions":[1.87658816576004028e-01,1.94291615486145020e+00,1.46825805306434631e-01,3.32289069890975952e-01,1.95979690551757812e+00,-6.08495771884918213e-02,4.49900716543197632e-01,5.22606074810028076e-02,5.72394132614135742e-01,5.07302224636077881e-01,2.05583021044731140e-01,1.70092269778251648e-01,6.39676898717880249e-02,9.05186682939529419e-02,3.18116754293441772e-01,1.61578392982482910e+00,2.67314791679382324e-01,5.04914462566375732e-01,6.74026608467102051e-02,8.56614559888839722e-02,1.14380910992622375e-01,3.59052866697311401e-01,1.95734763145446777e+00,7.99503251910209656e-02,2.96035736799240112e-01,4.41488251090049744e-02,-7.35308751463890076e-02,1.51475891470909119e-01,1.50498887524008751e-02,3.70124995708465576e-01,-6.55734613537788391e-02],"split_indices":[6061,7352,5012,7352,2591,0,0,3741,7352,0,1506,0,3741,3741,0,6921,0,0,3741,3741,3741,0,6017,0,0,0,0,0,0,0,0],"sum_hessian":[2.61659497070312500e+03,2.60544506835937500e+03,1.11498489379882812e+01,2.20884113311767578e+01,2.58335668945312500e+03,1.05411481857299805e+00,1.00957336425781250e+01,1.05975112915039062e+01,1.14908990859985352e+01,6.53040504455566406e+00,2.57682641601562500e+03,2.17602872848510742e+00,8.42148303985595703e+00,9.01957607269287109e+00,2.47132372856140137e+00,2.55535888671875000e+03,2.14674339294433594e+01,4.63675355911254883e+00,3.78472924232482910e+00,3.78965997695922852e+00,5.22991561889648438e+00,1.26837358474731445e+01,2.54267504882812500e+03,1.60870039463043213e+00,2.17602872848510742e+00,2.17602872848510742e+00,1.61363124847412109e+00,3.85694742202758789e+00,1.37296843528747559e+00,1.15843658447265625e+01,2.53109082031250000e+03],"tree_param":{"num_deleted":"0","num_feature":"11623","num_nodes":"31","size_leaf_vector":"0"}},{"base_weights":[-8.97410511970520020e-02,2.39065217971801758e+00,-9.97313931584358215e-02,-1.10015317797660828e-01,2.32085442543029785e+00,2.28674483299255371e+00,-1.20075635612010956e-01,2.26826310157775879e+00,-1.30197525024414062e-01,2.03458070755004883e+00,-1.41375109553337097e-01,5.79616248607635498e-01,2.12112569808959961e+00,2.24823284149169922e+00,-1.51636376976966858e-01],"default_left":[false,false,true,false,false,false,false,false,false,false,false,false,false,false,false],"id":18,"leaf_child_counts":[0,0,0,0,0,0,0,0,0,0,0,0,0,0,0],"left_children":[1,-1,3,5,-1,-1,7,-1,9,11,13,-1,-1,-1,-1],"loss_changes":[7.11599578857421875e+01,0.00000000000000000e+00,7.12388229370117188e+01,6.87632904052734375e+01,0.00000000000000000e+00,0.00000000000000000e+00,6.86970214843750000e+01,0.00000000000000000e+00,6.84869995117187500e+01,6.01844787597656250e-01,6.91196289062500000e+01,0.00000000000000000e+00,0.00000000000000000e+00,0.00000000000000000e+00,0.00000000000000000e+00],"parents":[2147483647,0,0,2,2,3,3,6,6,8,8,9,9,10,10],"right_children":[2,-1,4,6,-1,-1,8,-1,10,12,14,-1,-1,-1,-1],"split_conditions":[1.59177756309509277e+00,4.78130429983139038e-01,2.84420788288116455e-01,1.95550107955932617e+00,4.64170902967453003e-01,4.57348972558975220e-01,1.48978495597839355e+00,4.53652620315551758e-01,1.50284719467163086e+00,5.36449491977691650e-01,1.43510603904724121e+00,1.15923248231410980e-01,4.24225151538848877e-01,4.49646562337875366e-01,-3.03272753953933716e-02],"split_indices":[8257,0,1030,7502,0,0,8484,0,5357,4238,11089,0,0,0,0],"sum_hessian":[2.86105102539062500e+03,1.05213537216186523e+01,2.85052978515625000e+03,2.83942089843750000e+03,1.11088085174560547e+01,1.09226226806640625e+01,2.82849829101562500e+03,1.09952201843261719e+01,2.81750317382812500e+03,1.35432443618774414e+01,2.80395996093750000e+03,1.19250786304473877e+00,1.23507366180419922e+01,1.10565176010131836e+01,2.79290332031250000e+03],"tree_param":{"num_deleted":"0","num_feature":"11623","num_nodes":"15","size_leaf_vector":"0"}},{"base_weights":[-5.22652149200439453e-01,-5.78588843345642090e-01,-4.17384952306747437e-01,-5.79216241836547852e-01,9.68525633215904236e-02,-5.79205095767974854e-01,1.71491935849189758e-01,-5.65509378910064697e-01,3.73638004064559937e-01,-5.33684670925140381e-01,6.48483991622924805e-01,-5.62374889850616455e-01,1.10999837517738342e-01,-4.52173262834548950e-01,6.88409924507141113e-01,-3.16114217042922974e-01,7.25143969058990479e-01],"default_left":[false,true,false,false,false,false,false,false,false,true,false,false,false,false,false,false,false],"id":19,"leaf_child_counts":[0,0,0,0,0,0,0,0,0,0,0,0,0,0,0,0,0],"left_children":[1,3,5,-1,-1,-1,7,-1,9,11,13,-1,-1,-1,15,-1,-1],"loss_changes":[1.33878173828125000e+01,6.95556640625000000e-01,7.69767456054687500e+01,0.00000000000000000e+00,0.00000000000000000e+00,0.00000000000000000e+00,2.62347927093505859e+01,0.00000000000000000e+00,3.46798439025878906e+01,6.64624214172363281e-01,4.97477340698242188e+00,0.00000000000000000e+00,0.00000000000000000e+00,0.00000000000000000e+00,4.02269744873046875e+00,0.00000000000000000e+00,0.00000000000000000e+00],"parents":[2147483647,0,0,1,1,2,2,6,6,8,8,9,9,10,10,14,14],"right_children":[2,4,6,-1,-1,-1,8,-1,10,12,14,-1,-1,-1,16,-1,-1],"split_conditions":[5.73512196540832520e-01,3.47714424133300781e-01,7.96252489089965820e-01,-1.15843251347541809e-01,1.93705130368471146e-02,-1.15841023623943329e-01,1.18437838554382324e+00,-1.13101877272129059e-01,1.21088814735412598e+00,1.95984855294227600e-01,8.12516987323760986e-01,-1.12474977970123291e-01,2.21999678760766983e-02,-9.04346555471420288e-02,1.04222226142883301e+00,-6.32228478789329529e-02,1.45028799772262573e-01],"split_indices":[3741,2936,3745,0,0,0,3747,0,3748,4321,4075,0,0,0,3847,0,0],"sum_hessian":[2.31364379882812500e+03,1.50788879394531250e+03,8.05755065917968750e+02,1.50663171386718750e+03,1.25709307193756104e+00,6.32079528808593750e+02,1.73675552368164062e+02,3.69957542419433594e+01,1.36679794311523438e+02,3.15581474304199219e+01,1.05121650695800781e+02,3.03357944488525391e+01,1.22235202789306641e+00,3.31833195686340332e+00,1.01803314208984375e+02,3.32316112518310547e+00,9.84801559448242188e+01],"tree_param":{"num_deleted":"0","num_feature":"11623","num_nodes":"17","size_leaf_vector":"0"}},{"base_weights":[2.24169358611106873e-01,2.17628642916679382e-01,1.73447740077972412e+00,1.67855536937713623e+00,2.10787832736968994e-01,5.39499104022979736e-01,1.73027443885803223e+00,2.03762814402580261e-01,1.64631175994873047e+00,1.69363546371459961e+00,1.96942210197448730e-01,5.43842494487762451e-01,1.74714767932891846e+00,1.71857035160064697e+00,1.90211996436119080e-01,1.77484023571014404e+00,1.83698788285255432e-01],"default_left":[true,false,false,false,true,false,false,false,false,false,false,false,false,false,false,false,false],"id":20,"leaf_child_counts":[0,0,0,0,0,0,0,0,0,0,0,0,0,0,0,0,0],"left_children":[1,3,-1,5,7,-1,-1,9,-1,11,13,-1,-1,-1,15,-1,-1],"loss_changes":[3.57511138916015625e+01,3.60507507324218750e+01,0.00000000000000000e+00,5.82122802734375000e-02,3.62396545410156250e+01,0.00000000000000000e+00,0.00000000000000000e+00,3.63538360595703125e+01,0.00000000000000000e+00,5.40275573730468750e-02,3.64889221191406250e+01,0.00000000000000000e+00,0.00000000000000000e+00,0.00000000000000000e+00,3.66261901855468750e+01,0.00000000000000000e+00,0.00000000000000000e+00],"parents":[2147483647,0,0,1,1,3,3,4,4,7,7,9,9,10,10,14,14],"right_children":[2,4,-1,6,8,-1,-1,10,-1,12,14,-1,-1,-1,16,-1,-1],"split_conditions":[2.04181134700775146e-01,1.52088332176208496e+00,3.46895486116409302e-01,9.43998843431472778e-02,2.04358398914337158e-01,1.07899822294712067e-01,3.46054881811141968e-01,1.89114212989807129e+00,3.29262346029281616e-01,1.28724664449691772e-01,1.63748741149902344e+00,1.08768500387668610e-01,3.49429547786712646e-01,3.43714088201522827e-01,1.64240169525146484e+00,3.54968041181564331e-01,3.67397591471672058e-02],"split_indices":[3651,5365,0,3745,8358,0,0,8700,0,5908,2702,0,0,0,10827,0,0],"sum_hessian":[3.65629418945312500e+03,3.64166723632812500e+03,1.46269426345825195e+01,1.58337526321411133e+01,3.62583325195312500e+03,1.18420839309692383e+00,1.46495447158813477e+01,3.60931250000000000e+03,1.65209369659423828e+01,1.53210258483886719e+01,3.59399145507812500e+03,1.17777073383331299e+00,1.41432552337646484e+01,1.47062683105468750e+01,3.57928515625000000e+03,1.35401744842529297e+01,3.56574487304687500e+03],"tree_param":{"num_deleted":"0","num_feature":"11623","num_nodes":"17","size_leaf_vector":"0"}},{"base_weights":[2.75260061025619507e-01,1.56824266910552979e+00,2.69116133451461792e-01,1.61407136917114258e+00,2.63130754232406616e-01,1.31496012210845947e+00,2.55432128906250000e-01,1.60935425758361816e+00,2.49368503689765930e-01,1.30700373649597168e+00,2.41586625576019287e-01,1.01629152894020081e-01,1.41891789436340332e+00,2.33664467930793762e-01,1.27709007263183594e+00],"default_left":[false,false,false,false,false,false,false,false,false,false,true,false,false,false,false],"id":21,"leaf_child_counts":[0,0,0,0,0,0,0,0,0,0,0,0,0,0,0],"left_children":[1,-1,3,-1,5,-1,7,-1,9,11,13,-1,-1,-1,-1],"loss_changes":[3.01011047363281250e+01,0.00000000000000000e+00,3.03693237304687500e+01,0.00000000000000000e+00,3.05126647949218750e+01,0.00000000000000000e+00,3.06570587158203125e+01,0.00000000000000000e+00,3.06918029785156250e+01,3.53730392456054688e+00,3.03919067382812500e+01,0.00000000000000000e+00,0.00000000000000000e+00,0.00000000000000000e+00,0.00000000000000000e+00],"parents":[2147483647,0,0,2,2,4,4,6,6,8,8,9,9,10,10],"right_children":[2,-1,4,-1,6,-1,8,-1,10,12,14,-1,-1,-1,-1],"split_conditions":[1.95346212387084961e+00,3.13648551702499390e-01,1.95446014404296875e+00,3.22814285755157471e-01,1.36913824081420898e+00,2.62992024421691895e-01,1.43642616271972656e+00,3.21870863437652588e-01,1.94682550430297852e+00,2.82664060592651367e-01,1.93792194128036499e-01,2.03258302062749863e-02,2.83783584833145142e-01,4.67328950762748718e-02,2.55418032407760620e-01],"split_indices":[2169,0,2914,0,2044,0,5258,0,10286,8248,4056,0,0,0,0],"sum_hessian":[3.84129174804687500e+03,1.69641284942626953e+01,3.82432763671875000e+03,1.57533788681030273e+01,3.80857421875000000e+03,2.64396133422851562e+01,3.78213452148437500e+03,1.56841392517089844e+01,3.76645043945312500e+03,2.62909317016601562e+01,3.74015942382812500e+03,2.39573168754577637e+00,2.38952007293701172e+01,3.71297900390625000e+03,2.71806392669677734e+01],"tree_param":{"num_deleted":"0","num_feature":"11623","num_nodes":"15","size_leaf_vector":"0"}},{"base_weights":[-2.36709445714950562e-01,1.79513561725616455e+00,-2.48166278004646301e-01,1.88598918914794922e+00,-2.58466243743896484e-01,1.80803489685058594e+00,-2.69176810979843140e-01,1.91561317443847656e+00,-2.79363036155700684e-01,1.46429598331451416e+00,-2.91872620582580566e-01,1.79473602771759033e+00,-3.02146375179290771e-01],"default_left":[false,false,false,false,false,false,false,false,false,false,false,false,false],"id":22,"leaf_child_counts":[0,0,0,0,0,0,0,0,0,0,0,0,0],"left_children":[1,-1,3,-1,5,-1,7,-1,9,-1,11,-1,-1],"loss_changes":[5.84781036376953125e+01,0.00000000000000000e+00,5.49993133544921875e+01,0.00000000000000000e+00,5.51302947998046875e+01,0.00000000000000000e+00,5.52146453857421875e+01,0.00000000000000000e+00,5.37904052734375000e+01,0.00000000000000000e+00,5.26318817138671875e+01,0.00000000000000000e+00,0.00000000000000000e+00],"parents":[2147483647,0,0,2,2,4,4,6,6,8,8,10,10],"right_children":[2,-1,4,-1,6,-1,8,-1,10,-1,12,-1,-1],"split_conditions":[1.53837490081787109e+00,3.59027117490768433e-01,1.53403139114379883e+00,3.77197831869125366e-01,1.24576807022094727e+00,3.61606985330581665e-01,1.24414777755737305e+00,3.83122652769088745e-01,1.57469606399536133e+00,2.92859196662902832e-01,1.44926738739013672e+00,3.58947217464447021e-01,-6.04292750358581543e-02],"split_indices":[6761,0,10005,0,4224,0,3963,0,10092,0,10244,0,0],"sum_hessian":[2.49196801757812500e+03,1.30995807647705078e+01,2.47886840820312500e+03,1.10315170288085938e+01,2.46783691406250000e+03,1.18594264984130859e+01,2.45597753906250000e+03,1.05293788909912109e+01,2.44544824218750000e+03,1.65927982330322266e+01,2.42885522460937500e+03,1.10492744445800781e+01,2.41780615234375000e+03],"tree_param":{"num_deleted":"0","num_feature":"11623","num_nodes":"13","size_leaf_vector":"0"}},{"base_weights":[-7.72925317287445068e-02,2.43100237846374512e+00,-8.68775546550750732e-02,2.41169118881225586e+00,-9.62158814072608948e-02,-1.06753766536712646e-01,2.03854441642761230e+00,1.73173999786376953e+00,-1.19054324924945831e-01,2.11889195442199707e+00,5.69986939430236816e-01,2.14932036399841309e+00,-1.28749325871467590e-01,1.77035343647003174e+00,-1.39954015612602234e-01],"default_left":[false,false,false,false,true,false,true,false,false,false,false,false,false,false,false],"id":23,"leaf_child_counts":[0,0,0,0,0,0,0,0,0,0,0,0,0,0,0],"left_children":[1,-1,3,-1,5,7,9,-1,11,-1,-1,-1,13,-1,-1],"loss_changes":[6.77042541503906250e+01,0.00000000000000000e+00,6.55062561035156250e+01,0.00000000000000000e+00,6.29386863708496094e+01,6.29697647094726562e+01,4.14127349853515625e-01,0.00000000000000000e+00,6.09272994995117188e+01,0.00000000000000000e+00,0.00000000000000000e+00,0.00000000000000000e+00,5.87022361755371094e+01,0.00000000000000000e+00,0.00000000000000000e+00],"parents":[2147483647,0,0,2,2,4,4,5,5,6,6,8,8,12,12],"right_children":[2,-1,4,-1,6,8,10,-1,12,-1,-1,-1,14,-1,-1],"split_conditions":[1.81173849105834961e+00,4.86200481653213501e-01,1.49478435516357422e+00,4.82338249683380127e-01,2.09318563342094421e-01,1.95250177383422852e+00,2.03207373619079590e-01,3.46348017454147339e-01,1.95550107955932617e+00,4.23778384923934937e-01,1.13997392356395721e-01,4.29864078760147095e-01,1.44207763671875000e+00,3.54070693254470825e-01,-2.79908031225204468e-02],"split_indices":[2895,0,1025,0,6126,4415,6655,0,2839,0,0,0,7036,0,0],"sum_hessian":[2.80629223632812500e+03,9.72125053405761719e+00,2.79657080078125000e+03,9.45527458190917969e+00,2.78711572265625000e+03,2.77437036132812500e+03,1.27452230453491211e+01,1.75097007751464844e+01,2.75686059570312500e+03,1.16642122268676758e+01,1.08101034164428711e+00,1.07934112548828125e+01,2.74606738281250000e+03,1.51858749389648438e+01,2.73088134765625000e+03],"tree_param":{"num_deleted":"0","num_feature":"11623","num_nodes":"15","size_leaf_vector":"0"}},{"base_weights":[-5.08957445621490479e-01,-5.68246185779571533e-01,-3.99543344974517822e-01,-5.68930804729461670e-01,9.42424684762954712e-02,-5.68722665309906006e-01,1.61987319588661194e-01,-5.54031372070312500e-01,3.38039696216583252e-01,-5.19680261611938477e-01,5.65034151077270508e-01,-5.50636172294616699e-01,1.08216352760791779e-01,-5.20498216152191162e-01,5.96629023551940918e-01,-5.15241801738739014e-01,6.29344761371612549e-01],"default_left":[false,true,false,false,false,false,false,false,false,true,false,false,false,false,false,false,false],"id":24,"leaf_child_counts":[0,0,0,0,0,0,0,0,0,0,0,0,0,0,0,0,0],"left_children":[1,3,5,-1,-1,-1,7,-1,9,11,13,-1,-1,-1,15,-1,-1],"loss_changes":[1.34158325195312500e+01,6.71203613281250000e-01,7.06273117065429688e+01,0.00000000000000000e+00,0.00000000000000000e+00,0.00000000000000000e+00,2.19551372528076172e+01,0.00000000000000000e+00,2.74003353118896484e+01,6.36013984680175781e-01,4.10274124145507812e+00,0.00000000000000000e+00,0.00000000000000000e+00,0.00000000000000000e+00,4.24946594238281250e+00,0.00000000000000000e+00,0.00000000000000000e+00],"parents":[2147483647,0,0,1,1,2,2,6,6,8,8,9,9,10,10,14,14],"right_children":[2,4,6,-1,-1,-1,8,-1,10,12,14,-1,-1,-1,16,-1,-1],"split_conditions":[5.73512196540832520e-01,3.47714424133300781e-01,7.96252489089965820e-01,-1.13786160945892334e-01,1.88484936952590942e-02,-1.13744534552097321e-01,1.18437838554382324e+00,-1.10806278884410858e-01,1.21088814735412598e+00,1.95984855294227600e-01,8.21316480636596680e-01,-1.10127232968807220e-01,2.16432716697454453e-02,-1.04099646210670471e-01,1.22688055038452148e+00,-1.03048361837863922e-01,1.25868961215019226e-01],"split_indices":[3741,2936,3745,0,0,0,3747,0,3748,4321,3757,0,0,0,4641,0,0],"sum_hessian":[2.10210473632812500e+03,1.36062402343750000e+03,7.41480712890625000e+02,1.35936047363281250e+03,1.26356673240661621e+00,5.69797851562500000e+02,1.71682876586914062e+02,3.34583244323730469e+01,1.38224563598632812e+02,2.86559505462646484e+01,1.09568603515625000e+02,2.74268264770507812e+01,1.22912395000457764e+00,2.66120219230651855e+00,1.06907402038574219e+02,2.63416123390197754e+00,1.04273246765136719e+02],"tree_param":{"num_deleted":"0","num_feature":"11623","num_nodes":"17","size_leaf_vector":"0"}},{"base_weights":[1.92856103181838989e-01,1.65176463127136230e+00,1.86508163809776306e-01,1.70076513290405273e+00,1.80379137396812439e-01,1.68078553676605225e+00,1.74238666892051697e-01,1.33455610275268555e+00,1.66290551424026489e-01,3.81111234426498413e-01,1.41958940029144287e+00,1.69425868988037109e+00,1.60178735852241516e-01,5.17878532409667969e-01,6.99564218521118164e-02,1.12593956291675568e-01,1.48332607746124268e+00,1.53385624289512634e-01,1.53912031650543213e+00],"default_left":[false,false,false,false,false,false,false,false,false,false,false,false,true,false,false,false,false,false,false],"id":25,"leaf_child_counts":[0,0,0,0,0,0,0,0,0,0,0,0,0,0,0,0,0,0,0],"left_children":[1,-1,3,-1,5,-1,7,9,11,13,15,-1,17,-1,-1,-1,-1,-1,-1],"loss_changes":[3.43662261962890625e+01,0.00000000000000000e+00,3.43018035888671875e+01,0.00000000000000000e+00,3.39350433349609375e+01,0.00000000000000000e+00,3.39105606079101562e+01,1.48886489868164062e+00,3.40671005249023438e+01,1.09188854694366455e-01,1.71733093261718750e+00,0.00000000000000000e+00,3.40808792114257812e+01,0.00000000000000000e+00,0.00000000000000000e+00,0.00000000000000000e+00,0.00000000000000000e+00,0.00000000000000000e+00,0.00000000000000000e+00],"parents":[2147483647,0,0,2,2,4,4,6,6,7,7,8,8,9,9,10,10,12,12],"right_children":[2,-1,4,-1,6,-1,8,10,12,14,16,-1,18,-1,-1,-1,-1,-1,-1],"split_conditions":[1.57411551475524902e+00,3.30352932214736938e-01,1.73669600486755371e+00,3.40153038501739502e-01,1.58865308761596680e+00,3.36157113313674927e-01,1.38567924499511719e+00,2.28605479001998901e-01,1.95622158050537109e+00,2.85625040531158447e-01,5.63850879669189453e-01,3.38851749897003174e-01,2.41261571645736694e-01,1.03575706481933594e-01,1.39912841841578484e-02,2.25187912583351135e-02,2.96665221452713013e-01,3.06771248579025269e-02,3.07824075222015381e-01],"split_indices":[4919,0,4309,0,5078,0,2637,5386,5958,2637,6828,0,10261,0,0,0,0,0,0],"sum_hessian":[3.74309838867187500e+03,1.50932741165161133e+01,3.72800512695312500e+03,1.39138345718383789e+01,3.71409130859375000e+03,1.40265359878540039e+01,3.70006469726562500e+03,2.40373001098632812e+01,3.67602734375000000e+03,2.41710853576660156e+00,2.16201915740966797e+01,1.35449542999267578e+01,3.66248242187500000e+03,1.21755814552307129e+00,1.19955039024353027e+00,1.13394141197204590e+00,2.04862518310546875e+01,3.64563403320312500e+03,1.68483409881591797e+01],"tree_param":{"num_deleted":"0","num_feature":"11623","num_nodes":"19","size_leaf_vector":"0"}},{"base_weights":[2.33812332153320312e-01,1.52169740200042725e+00,2.28226915001869202e-01,1.57061910629272461e+00,5.01278042793273926e-01,1.47872066497802734e+00,2.22525924444198608e-01,4.74435627460479736e-01,1.52779817581176758e+00,1.21241450309753418e+00,2.15310439467430115e-01,1.24022495746612549e+00,3.88855010271072388e-01,1.54187476634979248e+00,2.09849447011947632e-01,2.04135313630104065e-01,1.49102175235748291e+00,1.36617386341094971e+00,1.97888404130935669e-01,4.89699751138687134e-01,1.53965401649475098e+00],"default_left":[false,true,false,false,false,false,false,false,false,true,false,false,false,false,true,false,false,false,false,false,false],"id":26,"leaf_child_counts":[0,0,0,0,0,0,0,0,0,0,0,0,0,0,0,0,0,0,0,0,0],"left_children":[1,3,5,-1,-1,7,9,-1,-1,11,13,-1,-1,-1,15,17,19,-1,-1,-1,-1],"loss_changes":[2.80638122558593750e+01,5.52749633789062500e-02,2.77148132324218750e+01,0.00000000000000000e+00,0.00000000000000000e+00,1.46335601806640625e-01,2.77167816162109375e+01,0.00000000000000000e+00,0.00000000000000000e+00,1.62002563476562500e-01,2.78565368652343750e+01,0.00000000000000000e+00,0.00000000000000000e+00,0.00000000000000000e+00,2.80647888183593750e+01,2.77435302734375000e+01,7.62138366699218750e-02,0.00000000000000000e+00,0.00000000000000000e+00,0.00000000000000000e+00,0.00000000000000000e+00],"parents":[2147483647,0,0,1,1,2,2,5,5,6,6,9,9,10,10,14,14,15,15,16,16],"right_children":[2,4,6,-1,-1,8,10,-1,-1,12,14,-1,-1,-1,16,18,20,-1,-1,-1,-1],"split_conditions":[1.95480227470397949e+00,1.51594370603561401e-01,1.60582828521728516e+00,3.14123839139938354e-01,1.00255608558654785e-01,4.79369640350341797e-01,1.78175354003906250e+00,9.48871299624443054e-02,3.05559635162353516e-01,1.37095749378204346e-01,1.95585846900939941e+00,2.48044997453689575e-01,7.77710005640983582e-02,3.08374971151351929e-01,2.49084025621414185e-01,1.23753809928894043e+00,2.78229475021362305e-01,2.73234784603118896e-01,3.95776815712451935e-02,9.79399532079696655e-02,3.07930797338485718e-01],"split_indices":[3111,3745,5194,0,0,7067,9927,0,0,5386,1796,0,0,0,2175,7815,5012,0,0,0,0],"sum_hessian":[3.94862622070312500e+03,1.58786678314208984e+01,3.93274755859375000e+03,1.46377067565917969e+01,1.24096107482910156e+00,1.66753711700439453e+01,3.91607202148437500e+03,1.27391886711120605e+00,1.54014520645141602e+01,2.71297588348388672e+01,3.88894238281250000e+03,2.57541427612304688e+01,1.37561488151550293e+00,1.47902994155883789e+01,3.87415209960937500e+03,3.85810400390625000e+03,1.60481166839599609e+01,1.94655704498291016e+01,3.83863842773437500e+03,1.25604307651519775e+00,1.47920732498168945e+01],"tree_param":{"num_deleted":"0","num_feature":"11623","num_nodes":"21","size_leaf_vector":"0"}},{"base_weights":[-2.16269031167030334e-01,1.97326254844665527e+00,-2.26246550679206848e-01,-2.39322066307067871e-01,1.46237623691558838e+00,2.65484833717346191e+00,-2.47010484337806702e-01,8.02218556404113770e-01,2.32850003242492676e+00,1.65997350215911865e+00,-2.58771955966949463e-01,-3.40477973222732544e-01,9.88901495933532715e-01,1.80413043498992920e+00,3.68308246135711670e-01,1.22539317607879639e+00,-2.74214357137680054e-01,1.51526939868927002e+00,5.69125831127166748e-01,-3.22992742061614990e-01,1.30681836605072021e+00,1.18593251705169678e+00,-2.90252745151519775e-01,-3.32708775997161865e-01,8.26041877269744873e-01],"default_left":[false,false,true,false,true,false,false,false,false,true,false,false,false,false,false,false,false,false,false,false,false,false,false,false,false],"id":27,"leaf_child_counts":[0,0,0,0,0,0,0,0,0,0,0,0,0,0,0,0,0,0,0,0,0,0,0,0,0],"left_children":[1,-1,3,5,7,-1,9,11,-1,13,15,-1,17,-1,-1,19,21,-1,23,-1,-1,-1,-1,-1,-1],"loss_changes":[5.24279251098632812e+01,0.00000000000000000e+00,5.26686325073242188e+01,5.29958953857421875e+01,8.62288665771484375e+00,0.00000000000000000e+00,5.30675354003906250e+01,2.88322305679321289e+00,0.00000000000000000e+00,2.03931427001953125e+00,5.38145599365234375e+01,0.00000000000000000e+00,1.46146869659423828e+00,0.00000000000000000e+00,0.00000000000000000e+00,3.47455215454101562e+00,5.44441223144531250e+01,0.00000000000000000e+00,2.00155901908874512e+00,0.00000000000000000e+00,0.00000000000000000e+00,0.00000000000000000e+00,0.00000000000000000e+00,0.00000000000000000e+00,0.00000000000000000e+00],"parents":[2147483647,0,0,2,2,3,3,4,4,6,6,7,7,9,9,10,10,12,12,15,15,16,16,18,18],"right_children":[2,-1,4,6,8,-1,10,12,-1,14,16,-1,18,-1,-1,20,22,-1,24,-1,-1,-1,-1,-1,-1],"split_conditions":[1.95853567123413086e+00,3.94652515649795532e-01,1.89967900514602661e-01,1.17577242851257324e+00,8.82731601595878601e-02,5.30969679355621338e-01,1.18820786476135254e+00,1.43220901489257812e-01,4.65700000524520874e-01,8.29601287841796875e-02,1.94841790199279785e+00,-6.80955946445465088e-02,2.56381392478942871e-01,3.60826104879379272e-01,7.36616477370262146e-02,7.03508079051971436e-01,1.94291615486145020e+00,3.03053885698318481e-01,2.76058495044708252e-01,-6.45985528826713562e-02,2.61363685131072998e-01,2.37186506390571594e-01,-5.80505505204200745e-02,-6.65417537093162537e-02,1.65208384394645691e-01],"split_indices":[4854,0,6060,1965,3741,0,934,5908,0,5908,6066,0,6060,0,0,1458,7352,0,6060,0,0,0,0,0,0],"sum_hessian":[2.37844213867187500e+03,9.89659500122070312e+00,2.36854541015625000e+03,2.35119775390625000e+03,1.73477630615234375e+01,5.31721973419189453e+00,2.34588061523437500e+03,1.09374656677246094e+01,6.41029739379882812e+00,1.35206928253173828e+01,2.33235986328125000e+03,1.42024445533752441e+00,9.51722145080566406e+00,1.18062973022460938e+01,1.71439564228057861e+00,2.32109718322753906e+01,2.30914892578125000e+03,3.06465625762939453e+00,6.45256519317626953e+00,1.01139879226684570e+00,2.21995735168457031e+01,2.42957782745361328e+01,2.28485302734375000e+03,1.36524176597595215e+00,5.08732366561889648e+00],"tree_param":{"num_deleted":"0","num_feature":"11623","num_nodes":"25","size_leaf_vector":"0"}},{"base_weights":[-6.60379901528358459e-02,1.72021400928497314e+00,-7.70240947604179382e-02,1.72522354125976562e+00,-8.79419073462486267e-02,1.49351799488067627e+00,-1.00533723831176758e-01,1.38666480779647827e-01,1.55841183662414551e+00,1.74807643890380859e+00,-1.11458823084831238e-01,1.62000834941864014e+00,1.80349558591842651e-01,1.38774096965789795e+00,-1.25172436237335205e-01,2.42934298515319824e+00,-1.33234322071075439e-01],"default_left":[false,false,false,false,false,false,false,false,true,false,false,false,false,false,false,false,false],"id":28,"leaf_child_counts":[0,0,0,0,0,0,0,0,0,0,0,0,0,0,0,0,0],"left_children":[1,-1,3,-1,5,7,9,-1,11,-1,13,-1,-1,-1,15,-1,-1],"loss_changes":[5.42249374389648438e+01,0.00000000000000000e+00,5.40766067504882812e+01,0.00000000000000000e+00,5.44144210815429688e+01,1.68200302124023438e+00,5.48139495849609375e+01,0.00000000000000000e+00,1.44829940795898438e+00,0.00000000000000000e+00,5.54677467346191406e+01,0.00000000000000000e+00,0.00000000000000000e+00,0.00000000000000000e+00,5.52279586791992188e+01,0.00000000000000000e+00,0.00000000000000000e+00],"parents":[2147483647,0,0,2,2,4,4,5,5,6,6,8,8,10,10,14,14],"right_children":[2,-1,4,-1,6,8,10,-1,12,-1,14,-1,-1,-1,16,-1,-1],"split_conditions":[1.95379042625427246e+00,3.44042807817459106e-01,1.95379042625427246e+00,3.45044702291488647e-01,1.94924569129943848e+00,2.23354697227478027e-01,1.37806487083435059e+00,2.77332961559295654e-02,9.73306819796562195e-02,3.49615305662155151e-01,1.95038676261901855e+00,3.24001669883728027e-01,3.60699109733104706e-02,2.77548193931579590e-01,9.47774410247802734e-01,4.85868602991104126e-01,-2.66468655318021774e-02],"split_indices":[7589,0,238,0,8996,10411,2454,0,3745,0,5354,0,0,0,4872,0,0],"sum_hessian":[2.75544970703125000e+03,1.58924026489257812e+01,2.73955737304687500e+03,1.55505304336547852e+01,2.72400683593750000e+03,2.05885734558105469e+01,2.70341821289062500e+03,1.08444273471832275e+00,1.95041313171386719e+01,1.49488763809204102e+01,2.68846948242187500e+03,1.85015792846679688e+01,1.00255107879638672e+00,2.34611091613769531e+01,2.66500830078125000e+03,7.43926429748535156e+00,2.65756909179687500e+03],"tree_param":{"num_deleted":"0","num_feature":"11623","num_nodes":"17","size_leaf_vector":"0"}},{"base_weights":[-4.96643692255020142e-01,-5.59432625770568848e-01,-3.83415788412094116e-01,-5.60185909271240234e-01,9.91577059030532837e-02,-5.60022175312042236e-01,1.53247579932212830e-01,-5.43888747692108154e-01,3.07402819395065308e-01,-5.06558537483215332e-01,4.97068375349044800e-01,-5.40190756320953369e-01,1.12086407840251923e-01,-4.43998247385025024e-01,5.27957975864410400e-01,5.66513538360595703e-01,-2.50040292739868164e-01],"default_left":[false,true,false,false,false,false,false,false,false,true,false,false,false,false,true,false,false],"id":29,"leaf_child_counts":[0,0,0,0,0,0,0,0,0,0,0,0,0,0,0,0,0],"left_children":[1,3,5,-1,-1,-1,7,-1,9,11,13,-1,-1,-1,15,-1,-1],"loss_changes":[1.33692016601562500e+01,6.64215087890625000e-01,6.49849853515625000e+01,0.00000000000000000e+00,0.00000000000000000e+00,0.00000000000000000e+00,1.84720344543457031e+01,0.00000000000000000e+00,2.18842735290527344e+01,6.21821880340576172e-01,3.55261421203613281e+00,0.00000000000000000e+00,0.00000000000000000e+00,0.00000000000000000e+00,3.47055435180664062e+00,0.00000000000000000e+00,0.00000000000000000e+00],"parents":[2147483647,0,0,1,1,2,2,6,6,8,8,9,9,10,10,14,14],"right_children":[2,4,6,-1,-1,-1,8,-1,10,12,14,-1,-1,-1,16,-1,-1],"split_conditions":[5.73512196540832520e-01,3.47714424133300781e-01,7.96252489089965820e-01,-1.12037181854248047e-01,1.98315419256687164e-02,-1.12004436552524567e-01,1.18437838554382324e+00,-1.08777754008769989e-01,1.21088814735412598e+00,1.95984855294227600e-01,8.12516987323760986e-01,-1.08038149774074554e-01,2.24172826856374741e-02,-8.87996479868888855e-02,1.53960973024368286e-01,1.13302707672119141e-01,-5.00080585479736328e-02],"split_indices":[3741,2936,3745,0,0,0,3747,0,3748,4321,4075,0,0,0,7082,0,0],"sum_hessian":[1.90965222167968750e+03,1.22590405273437500e+03,6.83748168945312500e+02,1.22465270996093750e+03,1.25137472152709961e+00,5.14418640136718750e+02,1.69329528808593750e+02,3.02050476074218750e+01,1.39124481201171875e+02,2.59760169982910156e+01,1.13148468017578125e+02,2.47569389343261719e+01,1.21907794475555420e+00,3.17092823982238770e+00,1.09977539062500000e+02,1.05043685913085938e+02,4.93385839462280273e+00],"tree_param":{"num_deleted":"0","num_feature":"11623","num_nodes":"17","size_leaf_vector":"0"}},{"base_weights":[1.66838139295578003e-01,1.59366607666015625e-01,1.30938076972961426e+00,1.42303562164306641e+00,1.52593284845352173e-01,6.41963481903076172e-02,1.37090122699737549e+00,5.62745749950408936e-01,1.48458266258239746e+00,1.65132570266723633e+00,1.46832197904586792e-01,1.51388239860534668e+00,7.20382571220397949e-01,1.22094225883483887e+00,1.38958573341369629e-01,4.98275518417358398e-01,1.55823040008544922e+00,8.23269903659820557e-01,1.29255086183547974e-01,1.27465164661407471e+00,5.27629494667053223e-01,1.30589771270751953e+00,1.31600514054298401e-01,1.14164873957633972e-02,7.98236131668090820e-01,1.30303955078125000e+00,1.24167039990425110e-01],"default_left":[true,false,false,false,false,false,false,false,false,false,false,false,false,true,false,false,false,false,false,false,true,false,false,false,false,false,false],"id":30,"leaf_child_counts":[0,0,0,0,0,0,0,0,0,0,0,0,0,0,0,0,0,0,0,0,0,0,0,0,0,0,0],"left_children":[1,3,5,7,9,-1,11,-1,-1,-1,13,15,17,19,21,-1,-1,-1,-1,-1,23,-1,25,-1,-1,-1,-1],"loss_changes":[3.23631362915039062e+01,3.22387771606445312e+01,1.80035400390625000e+00,2.28626251220703125e-01,3.23332443237304688e+01,0.00000000000000000e+00,1.08972930908203125e+00,0.00000000000000000e+00,0.00000000000000000e+00,0.00000000000000000e+00,3.16247406005859375e+01,4.82292175292968750e-02,2.66516685485839844e-01,3.41407775878906250e-01,3.18833007812500000e+01,0.00000000000000000e+00,0.00000000000000000e+00,0.00000000000000000e+00,0.00000000000000000e+00,0.00000000000000000e+00,5.02720355987548828e-01,0.00000000000000000e+00,3.21527633666992188e+01,0.00000000000000000e+00,0.00000000000000000e+00,0.00000000000000000e+00,0.00000000000000000e+00],"parents":[2147483647,0,0,1,1,2,2,3,3,4,4,6,6,10,10,11,11,12,12,13,13,14,14,20,20,22,22],"right_children":[2,4,6,8,10,-1,12,-1,-1,-1,14,16,18,20,22,-1,-1,-1,-1,-1,24,-1,26,-1,-1,-1,-1],"split_conditions":[2.61294364929199219e-01,6.69739484786987305e-01,3.21655273437500000e-01,9.40582901239395142e-02,1.95659065246582031e+00,1.28392698243260384e-02,4.98373866081237793e-01,1.12549148499965668e-01,2.96916544437408447e-01,3.30265134572982788e-01,1.94896721839904785e+00,6.67461752891540527e-01,2.15433612465858459e-01,1.55022159218788147e-01,1.88539981842041016e+00,9.96551066637039185e-02,3.11646074056625366e-01,1.64653986692428589e-01,2.58510168641805649e-02,2.54930347204208374e-01,7.89365321397781372e-02,2.61179536581039429e-01,1.95127344131469727e+00,2.28329747915267944e-03,1.59647226333618164e-01,2.60607928037643433e-01,2.48334091156721115e-02],"split_indices":[759,4482,3757,3745,10909,0,3741,0,0,0,6470,10334,3745,5012,6334,0,0,0,0,0,3741,0,8064,0,0,0,0],"sum_hessian":[3.81456909179687500e+03,3.79091821289062500e+03,2.36508369445800781e+01,1.90963783264160156e+01,3.77182177734375000e+03,1.20970511436462402e+00,2.24411315917968750e+01,1.95221006870269775e+00,1.71441688537597656e+01,1.33494644165039062e+01,3.75847241210937500e+03,1.73094062805175781e+01,5.13172531127929688e+00,2.62293682098388672e+01,3.73224291992187500e+03,1.23614668846130371e+00,1.60732593536376953e+01,4.03645801544189453e+00,1.09526753425598145e+00,2.35653190612792969e+01,2.66404938697814941e+00,2.22801666259765625e+01,3.70996289062500000e+03,1.27466642856597900e+00,1.38938295841217041e+00,2.22944431304931641e+01,3.68766845703125000e+03],"tree_param":{"num_deleted":"0","num_feature":"11623","num_nodes":"27","size_leaf_vector":"0"}},{"base_weights":[1.99933677911758423e-01,1.50273382663726807e+00,1.94980978965759277e-01,1.88681438565254211e-01,1.22361552715301514e+00,1.83456480503082275e-01,1.44099116325378418e+00,3.37261140346527100e-01,1.26271760463714600e+00,1.76767244935035706e-01,1.17176604270935059e+00,3.66820544004440308e-01,1.30411458015441895e+00,1.70185089111328125e-01,1.23954236507415771e+00,1.27936577796936035e+00,2.28046089410781860e-01,4.12074506282806396e-01,1.34320890903472900e+00,1.49123346805572510e+00,1.65023282170295715e-01,-3.80916357040405273e-01,1.34082376956939697e+00,3.78742396831512451e-01,1.31855511665344238e+00,-3.92480581998825073e-01,6.59266650676727295e-01],"default_left":[false,false,true,true,false,true,false,false,false,true,true,false,false,false,false,false,false,false,false,false,false,false,false,false,false,false,false],"id":31,"leaf_child_counts":[0,0,0,0,0,0,0,0,0,0,0,0,0,0,0,0,0,0,0,0,0,0,0,0,0,0,0],"left_children":[1,-1,3,5,7,9,-1,-1,11,13,15,-1,17,19,21,23,25,-1,-1,-1,-1,-1,-1,-1,-1,-1,-1],"loss_changes":[2.57461090087890625e+01,0.00000000000000000e+00,2.58278045654296875e+01,2.58965911865234375e+01,4.16187286376953125e-01,2.61225585937500000e+01,0.00000000000000000e+00,0.00000000000000000e+00,3.71109008789062500e-01,2.74702758789062500e+01,2.40905380249023438e+00,0.00000000000000000e+00,1.96346282958984375e-01,2.65790634155273438e+01,4.48212432861328125e+00,3.35624694824218750e-01,1.31278502941131592e+00,0.00000000000000000e+00,0.00000000000000000e+00,0.00000000000000000e+00,0.00000000000000000e+00,0.00000000000000000e+00,0.00000000000000000e+00,0.00000000000000000e+00,0.00000000000000000e+00,0.00000000000000000e+00,0.00000000000000000e+00],"parents":[2147483647,0,0,2,2,3,3,4,4,5,5,8,8,9,9,10,10,12,12,13,13,14,14,15,15,16,16],"right_children":[2,-1,4,6,8,10,-1,-1,12,14,16,-1,18,20,22,24,26,-1,-1,-1,-1,-1,-1,-1,-1,-1,-1],"split_conditions":[1.74036812782287598e+00,3.00546765327453613e-01,1.92447096109390259e-01,2.14323610067367554e-01,2.59639739990234375e-01,2.10116922855377197e-01,2.88198232650756836e-01,6.74522295594215393e-02,4.70904827117919922e-01,1.75726994872093201e-01,1.07269637286663055e-01,7.33641088008880615e-02,5.66274940967559814e-01,1.17250776290893555e+00,2.97476172447204590e-01,3.17117214202880859e-01,1.42245769500732422e-01,8.24149027466773987e-02,2.68641799688339233e-01,2.98246711492538452e-01,3.30046564340591431e-02,-7.61832743883132935e-02,2.68164753913879395e-01,7.57484808564186096e-02,2.63711035251617432e-01,-7.84961208701133728e-02,1.31853327155113220e-01],"split_indices":[8498,0,8774,1242,7424,11429,0,0,3757,9555,3745,0,11177,11096,5012,11177,3745,0,0,0,0,0,0,0,0,0,0],"sum_hessian":[4.03458178710937500e+03,1.41344041824340820e+01,4.02044726562500000e+03,3.99715136718750000e+03,2.32958297729492188e+01,3.98168530273437500e+03,1.54661064147949219e+01,1.39096677303314209e+00,2.19048633575439453e+01,3.95608789062500000e+03,2.55973873138427734e+01,1.40298938751220703e+00,2.05018730163574219e+01,3.93289038085937500e+03,2.31977081298828125e+01,2.26583023071289062e+01,2.93908572196960449e+00,1.34532213211059570e+00,1.91565513610839844e+01,1.41868343353271484e+01,3.91870336914062500e+03,1.20219159126281738e+00,2.19955177307128906e+01,1.38952898979187012e+00,2.12687721252441406e+01,1.24187076091766357e+00,1.69721496105194092e+00],"tree_param":{"num_deleted":"0","num_feature":"11623","num_nodes":"27","size_leaf_vector":"0"}},{"base_weights":[-1.96839407086372375e-01,-2.10055157542228699e-01,1.54917764663696289e+00,2.05816149711608887e+00,-2.20258012413978577e-01,2.01228097081184387e-01,1.62083005905151367e+00,-2.31485143303871155e-01,1.80675613880157471e+00,5.31636655330657959e-01,1.68024361133575439e+00,-2.43834123015403748e-01,1.63068044185638428e+00,1.03176283836364746e+00,1.93038177490234375e+00,-2.59137332439422607e-01,1.20894372463226318e+00,1.72875964641571045e+00,6.27313792705535889e-01,1.35406124591827393e+00,1.96048822253942490e-02,-2.74245291948318481e-01,1.24638378620147705e+00],"default_left":[true,false,false,false,true,false,false,true,false,false,false,true,true,false,false,true,false,false,false,false,false,false,false],"id":32,"leaf_child_counts":[0,0,0,0,0,0,0,0,0,0,0,0,0,0,0,0,0,0,0,0,0,0,0],"left_children":[1,3,5,-1,7,-1,9,11,-1,-1,13,15,17,19,-1,21,-1,-1,-1,-1,-1,-1,-1],"loss_changes":[5.29738082885742188e+01,5.28791198730468750e+01,1.34083175659179688e+00,0.00000000000000000e+00,5.17621307373046875e+01,0.00000000000000000e+00,1.58084869384765625e-01,5.20137252807617188e+01,0.00000000000000000e+00,0.00000000000000000e+00,4.32262420654296875e-01,4.99058837890625000e+01,3.83499145507812500e-01,2.03115653991699219e+00,0.00000000000000000e+00,5.05690612792968750e+01,0.00000000000000000e+00,0.00000000000000000e+00,0.00000000000000000e+00,0.00000000000000000e+00,0.00000000000000000e+00,0.00000000000000000e+00,0.00000000000000000e+00],"parents":[2147483647,0,0,1,1,2,2,4,4,6,6,7,7,10,10,11,11,12,12,13,13,15,15],"right_children":[2,4,6,-1,8,-1,10,12,-1,-1,14,16,18,20,-1,22,-1,-1,-1,-1,-1,-1,-1],"split_conditions":[1.94834694266319275e-01,1.56318521499633789e+00,3.79899024963378906e-01,4.11632299423217773e-01,1.80364236235618591e-01,4.02456186711788177e-02,8.83450210094451904e-01,2.20635712146759033e-01,3.61351221799850464e-01,1.06327332556247711e-01,2.89360463619232178e-01,2.05583021044731140e-01,9.26989689469337463e-02,2.61750578880310059e-01,3.86076360940933228e-01,1.81350350379943848e-01,2.41788744926452637e-01,3.45751941204071045e-01,1.25462755560874939e-01,2.70812243223190308e-01,3.92097653821110725e-03,-5.48490583896636963e-02,2.49276757240295410e-01],"split_indices":[4874,6074,4238,0,8677,0,1873,5911,0,0,4874,1506,3741,4874,0,10065,0,0,0,0,0,0,0],"sum_hessian":[2.28062695312500000e+03,2.26436743164062500e+03,1.62594985961914062e+01,9.24108028411865234e+00,2.25512646484375000e+03,1.01289725303649902e+00,1.52466001510620117e+01,2.24358544921875000e+03,1.15408611297607422e+01,1.30323636531829834e+00,1.39433641433715820e+01,2.22966845703125000e+03,1.39170112609863281e+01,5.30777549743652344e+00,8.63558864593505859e+00,2.20723974609375000e+03,2.24289054870605469e+01,1.20191764831542969e+01,1.89783501625061035e+00,3.76962757110595703e+00,1.53814792633056641e+00,2.18611962890625000e+03,2.11199722290039062e+01],"tree_param":{"num_deleted":"0","num_feature":"11623","num_nodes":"23","size_leaf_vector":"0"}},{"base_weights":[-5.59621788561344147e-02,2.47053194046020508e+00,-6.37381300330162048e-02,1.50645732879638672e+00,-7.63355717062950134e-02,2.98531293869018555e-01,1.68673765659332275e+00,-8.81040617823600769e-02,1.60077786445617676e+00,7.81648099422454834e-01,-3.50947916507720947e-01,5.28948783874511719e-01,1.74015128612518311e+00,1.74517929553985596e+00,-9.93723794817924500e-02,5.33992469310760498e-01,1.80019462108612061e+00,1.65885329246520996e-01,1.83796930313110352e+00,1.80746090412139893e+00,-1.10070869326591492e-01,9.98571395874023438e-01,1.96168899536132812e+00,1.69166579842567444e-01,1.94282114505767822e+00,1.76674008369445801e+00,-1.21106855571269989e-01],"default_left":[false,false,false,false,true,false,false,false,false,false,false,false,false,false,false,false,false,false,false,false,false,false,false,false,false,false,false],"id":33,"leaf_child_counts":[0,0,0,0,0,0,0,0,0,0,0,0,0,0,0,0,0,0,0,0,0,0,0,0,0,0,0],"left_children":[1,-1,3,5,7,9,11,13,-1,-1,-1,-1,15,17,19,-1,21,-1,23,-1,25,-1,-1,-1,-1,-1,-1],"loss_changes":[5.33435592651367188e+01,0.00000000000000000e+00,5.35203399658203125e+01,4.18641662597656250e+00,5.30239982604980469e+01,1.53315973281860352e+00,2.25154876708984375e-01,5.51577301025390625e+01,0.00000000000000000e+00,0.00000000000000000e+00,0.00000000000000000e+00,0.00000000000000000e+00,2.89520263671875000e-01,2.08577728271484375e+00,5.41847839355468750e+01,0.00000000000000000e+00,1.16378784179687500e-01,0.00000000000000000e+00,2.35011291503906250e+00,0.00000000000000000e+00,5.47397079467773438e+01,0.00000000000000000e+00,0.00000000000000000e+00,0.00000000000000000e+00,0.00000000000000000e+00,0.00000000000000000e+00,0.00000000000000000e+00],"parents":[2147483647,0,0,2,2,3,3,4,4,5,5,6,6,7,7,12,12,13,13,14,14,16,16,18,18,20,20],"right_children":[2,-1,4,6,8,10,12,14,-1,-1,-1,-1,16,18,20,-1,22,-1,24,-1,26,-1,-1,-1,-1,-1,-1],"split_conditions":[1.69079518318176270e+00,4.94106382131576538e-01,1.94506096839904785e+00,5.83608746528625488e-02,2.09851458668708801e-01,2.25338995456695557e-01,3.96117508411407471e-01,1.50022864341735840e+00,3.20155590772628784e-01,1.56329616904258728e-01,-7.01895877718925476e-02,1.05789758265018463e-01,7.22485542297363281e-01,9.47318553924560547e-01,1.54457426071166992e+00,1.06798492372035980e-01,8.42376202344894409e-02,3.31770665943622589e-02,2.46479153633117676e-01,3.61492186784744263e-01,1.27688598632812500e+00,1.99714288115501404e-01,3.92337799072265625e-01,3.38333174586296082e-02,3.88564229011535645e-01,3.53348016738891602e-01,-2.42213718593120575e-02],"split_indices":[9859,0,1873,3741,425,1873,4874,4103,0,0,0,0,4242,2801,4109,0,3741,0,5889,0,8723,0,0,0,0,0,0],"sum_hessian":[2.70623754882812500e+03,7.33181953430175781e+00,2.69890551757812500e+03,2.05367660522460938e+01,2.67836889648437500e+03,3.01193428039550781e+00,1.75248317718505859e+01,2.66064624023437500e+03,1.77225856781005859e+01,1.61047685146331787e+00,1.40145730972290039e+00,1.25365245342254639e+00,1.62711791992187500e+01,1.53137912750244141e+01,2.64533251953125000e+03,1.24072766304016113e+00,1.50304517745971680e+01,1.00451970100402832e+00,1.43092718124389648e+01,1.38220987319946289e+01,2.63151025390625000e+03,3.72477746009826660e+00,1.13056745529174805e+01,1.00040483474731445e+00,1.33088665008544922e+01,1.44532871246337891e+01,2.61705712890625000e+03],"tree_param":{"num_deleted":"0","num_feature":"11623","num_nodes":"27","size_leaf_vector":"0"}},{"base_weights":[-4.85499233007431030e-01,-5.51898956298828125e-01,-3.68613660335540771e-01,-5.52728354930877686e-01,1.01525492966175079e-01,-5.52550911903381348e-01,1.43400251865386963e-01,-5.35224020481109619e-01,2.79609650373458862e-01,-4.95280355215072632e-01,4.41582411527633667e-01,-5.31400442123413086e-01,1.08102232217788696e-01,1.11244344711303711e+00,3.94091725349426270e-01,-5.11349618434906006e-01,4.20256763696670532e-01],"default_left":[false,true,false,false,false,false,false,false,false,true,false,false,false,false,false,false,false],"id":34,"leaf_child_counts":[0,0,0,0,0,0,0,0,0,0,0,0,0,0,0,0,0],"left_children":[1,3,5,-1,-1,-1,7,-1,9,11,13,-1,-1,-1,15,-1,-1],"loss_changes":[1.32697448730468750e+01,6.54998779296875000e-01,5.95916900634765625e+01,0.00000000000000000e+00,0.00000000000000000e+00,0.00000000000000000e+00,1.56607856750488281e+01,0.00000000000000000e+00,1.78419513702392578e+01,5.96786022186279297e-01,3.27849960327148438e+00,0.00000000000000000e+00,0.00000000000000000e+00,0.00000000000000000e+00,2.83276176452636719e+00,0.00000000000000000e+00,0.00000000000000000e+00],"parents":[2147483647,0,0,1,1,2,2,6,6,8,8,9,9,10,10,14,14],"right_children":[2,4,6,-1,-1,-1,8,-1,10,12,14,-1,-1,-1,16,-1,-1],"split_conditions":[5.73512196540832520e-01,3.47714424133300781e-01,7.96252489089965820e-01,-1.10545672476291656e-01,2.03050989657640457e-02,-1.10510185360908508e-01,1.18437838554382324e+00,-1.07044808566570282e-01,1.21088814735412598e+00,1.95984855294227600e-01,5.11086523532867432e-01,-1.06280088424682617e-01,2.16204468160867691e-02,2.22488686442375183e-01,8.21316480636596680e-01,-1.02269925177097321e-01,8.40513557195663452e-02],"split_indices":[3741,2936,3745,0,0,0,3747,0,3748,4321,5012,0,0,0,3757,0,0],"sum_hessian":[1.73497412109375000e+03,1.10406237792968750e+03,6.30911743164062500e+02,1.10281665039062500e+03,1.24569487571716309e+00,4.64105926513671875e+02,1.66805816650390625e+02,2.73939399719238281e+01,1.39411880493164062e+02,2.37469348907470703e+01,1.15664947509765625e+02,2.25182304382324219e+01,1.22870373725891113e+00,6.16418361663818359e+00,1.09500762939453125e+02,2.55462718009948730e+00,1.06946136474609375e+02],"tree_param":{"num_deleted":"0","num_feature":"11623","num_nodes":"17","size_leaf_vector":"0"}},{"base_weights":[1.45198330283164978e-01,1.39802813529968262e-01,1.60485041141510010e+00,1.34009301662445068e-01,1.51323747634887695e+00,1.54286122322082520e+00,1.28301113843917847e-01,1.56014645099639893e+00,1.22674420475959778e-01,1.21108615398406982e+00,1.15210987627506256e-01,1.26785230636596680e+00,4.10620123147964478e-01,1.09486453235149384e-01,1.55778813362121582e+00],"default_left":[true,true,false,false,false,false,false,false,false,false,true,false,false,false,false],"id":35,"leaf_child_counts":[0,0,0,0,0,0,0,0,0,0,0,0,0,0,0],"left_children":[1,3,-1,5,-1,-1,7,-1,9,11,13,-1,-1,-1,-1],"loss_changes":[3.02669982910156250e+01,3.04991302490234375e+01,0.00000000000000000e+00,3.07103195190429688e+01,0.00000000000000000e+00,0.00000000000000000e+00,3.06566772460937500e+01,0.00000000000000000e+00,3.08511161804199219e+01,6.55235290527343750e-01,3.11289329528808594e+01,0.00000000000000000e+00,0.00000000000000000e+00,0.00000000000000000e+00,0.00000000000000000e+00],"parents":[2147483647,0,0,1,1,3,3,6,6,8,8,9,9,10,10],"right_children":[2,4,-1,6,-1,-1,8,-1,10,12,14,-1,-1,-1,-1],"split_conditions":[2.44600355625152588e-01,2.25750237703323364e-01,3.20970088243484497e-01,1.95585846900939941e+00,3.02647501230239868e-01,3.08572262525558472e-01,1.55706739425659180e+00,3.12029302120208740e-01,1.94981074333190918e+00,4.45245146751403809e-01,2.55285292863845825e-01,2.53570467233657837e-01,8.21240246295928955e-02,2.18972917646169662e-02,3.11557620763778687e-01],"split_indices":[6786,2271,0,2561,0,0,6057,0,580,3741,9141,0,0,0,0],"sum_hessian":[3.87063427734375000e+03,3.85747119140625000e+03,1.31631374359130859e+01,3.84236083984375000e+03,1.51105375289916992e+01,1.44184465408325195e+01,3.82794238281250000e+03,1.39022674560546875e+01,3.81404003906250000e+03,2.48770961761474609e+01,3.78916284179687500e+03,2.26844978332519531e+01,2.19259786605834961e+00,3.77525756835937500e+03,1.39053468704223633e+01],"tree_param":{"num_deleted":"0","num_feature":"11623","num_nodes":"15","size_leaf_vector":"0"}},{"base_weights":[1.71731024980545044e-01,1.33255159854888916e+00,1.66533410549163818e-01,1.18758881092071533e+00,1.60561397671699524e-01,3.43990802764892578e-01,1.22628629207611084e+00,1.23430335521697998e+00,1.54817566275596619e-01,3.49340885877609253e-01,1.26944148540496826e+00,1.34331345558166504e+00,1.49622008204460144e-01,1.44218802452087402e+00,1.44904673099517822e-01,1.38554528355598450e-01,1.11379981040954590e+00],"default_left":[false,false,false,false,false,false,false,false,false,false,false,false,false,false,true,false,false],"id":36,"leaf_child_counts":[0,0,0,0,0,0,0,0,0,0,0,0,0,0,0,0,0],"left_children":[1,-1,3,5,7,-1,9,-1,11,-1,-1,-1,13,-1,15,-1,-1],"loss_changes":[2.45429840087890625e+01,0.00000000000000000e+00,2.47334060668945312e+01,3.48964691162109375e-01,2.48781051635742188e+01,0.00000000000000000e+00,3.96152496337890625e-01,0.00000000000000000e+00,2.47722625732421875e+01,0.00000000000000000e+00,0.00000000000000000e+00,0.00000000000000000e+00,2.43506851196289062e+01,0.00000000000000000e+00,2.45441741943359375e+01,0.00000000000000000e+00,0.00000000000000000e+00],"parents":[2147483647,0,0,2,2,3,3,4,4,6,6,8,8,12,12,14,14],"right_children":[2,-1,4,6,8,-1,10,-1,12,-1,-1,-1,14,-1,16,-1,-1],"split_conditions":[1.47954010963439941e+00,2.66510337591171265e-01,1.55965113639831543e+00,1.83002591133117676e-01,1.95281791687011719e+00,6.87981620430946350e-02,3.21540325880050659e-01,2.46860668063163757e-01,1.68102836608886719e+00,6.98681771755218506e-02,2.53888309001922607e-01,2.68662691116333008e-01,1.95734763145446777e+00,2.88437604904174805e-01,2.04100832343101501e-01,2.77109052985906601e-02,2.22759962081909180e-01],"split_indices":[5502,0,7724,7082,10955,0,8894,0,4832,0,0,0,10617,0,8833,0,0],"sum_hessian":[4.10356835937500000e+03,1.71536045074462891e+01,4.08641479492187500e+03,2.26114025115966797e+01,4.06380322265625000e+03,1.42547702789306641e+00,2.11859245300292969e+01,2.04849433898925781e+01,4.04331835937500000e+03,1.42025649547576904e+00,1.97656688690185547e+01,1.64776020050048828e+01,4.02684082031250000e+03,1.35348339080810547e+01,4.01330590820312500e+03,3.98830957031250000e+03,2.49963741302490234e+01],"tree_param":{"num_deleted":"0","num_feature":"11623","num_nodes":"17","size_leaf_vector":"0"}},{"base_weights":[-1.78776964545249939e-01,1.50245416164398193e+00,-1.91800311207771301e-01,1.58795166015625000e+00,4.17071402072906494e-01,-2.03578189015388489e-01,1.67965424060821533e+00,1.08998489379882812e+00,2.08182644844055176e+00,1.57838010787963867e+00,-2.15751007199287415e-01,1.35801136493682861e-01,1.81630575656890869e+00,1.65058767795562744e+00,5.49704015254974365e-01,5.00998735427856445e-01,1.63959944248199463e+00,1.63622879981994629e+00,-2.27420240640640259e-01,1.96232259273529053e+00,6.41369462013244629e-01,5.26200473308563232e-01,1.98341596126556396e+00,7.07357883453369141e-01,3.69466431438922882e-02,1.48406183719635010e+00,-2.39994451403617859e-01,6.07701778411865234e-01,2.05012941360473633e+00,1.62038907408714294e-01,1.05325627326965332e+00,2.00696229934692383e+00,-2.49395161867141724e-01],"default_left":[false,true,true,true,false,false,false,false,false,false,false,false,true,false,false,false,false,false,false,false,false,false,false,true,false,false,false,false,false,false,false,false,false],"id":37,"leaf_child_counts":[0,0,0,0,0,0,0,0,0,0,0,0,0,0,0,0,0,0,0,0,0,0,0,0,0,0,0,0,0,0,0,0,0],"left_children":[1,3,5,7,-1,9,11,13,-1,15,17,-1,19,21,23,-1,-1,-1,25,27,-1,-1,-1,29,-1,-1,31,-1,-1,-1,-1,-1,-1],"loss_changes":[4.82842941284179688e+01,9.11853790283203125e-01,4.83073348999023438e+01,1.51042938232421875e+00,0.00000000000000000e+00,4.72677917480468750e+01,2.64736175537109375e+00,2.04620647430419922e+00,0.00000000000000000e+00,1.54621124267578125e-01,4.68274993896484375e+01,0.00000000000000000e+00,8.89602661132812500e-01,5.60407638549804688e-01,4.96488094329833984e-01,0.00000000000000000e+00,0.00000000000000000e+00,0.00000000000000000e+00,4.63458938598632812e+01,2.11067199707031250e-02,0.00000000000000000e+00,0.00000000000000000e+00,0.00000000000000000e+00,7.51635313034057617e-01,0.00000000000000000e+00,0.00000000000000000e+00,4.53296432495117188e+01,0.00000000000000000e+00,0.00000000000000000e+00,0.00000000000000000e+00,0.00000000000000000e+00,0.00000000000000000e+00,0.00000000000000000e+00],"parents":[2147483647,0,0,1,1,2,2,3,3,5,5,6,6,7,7,9,9,10,10,12,12,13,13,14,14,18,18,19,19,23,23,26,26],"right_children":[2,4,6,8,-1,10,12,14,-1,16,18,-1,20,22,24,-1,-1,-1,26,28,-1,-1,-1,30,-1,-1,32,-1,-1,-1,-1,-1,-1],"split_conditions":[5.86776077747344971e-01,8.97773206233978271e-02,1.87658816576004028e-01,6.14874288439750671e-02,8.34142789244651794e-02,1.61578392982482910e+00,2.97180354595184326e-01,2.24428474903106689e-01,4.16365295648574829e-01,6.96834087371826172e-01,1.95734763145446777e+00,2.71602272987365723e-02,1.03838615119457245e-01,5.26106134057044983e-02,2.55586385726928711e-01,1.00199751555919647e-01,3.27919900417327881e-01,3.27245771884918213e-01,1.53837490081787109e+00,1.58758744597434998e-01,1.28273889422416687e-01,1.05240099132061005e-01,3.96683186292648315e-01,5.50218820571899414e-02,7.38932890817523003e-03,2.96812385320663452e-01,1.95979690551757812e+00,1.21540360152721405e-01,4.10025894641876221e-01,3.24077829718589783e-02,2.10651263594627380e-01,4.01392459869384766e-01,-4.98790331184864044e-02],"split_indices":[10004,3741,6061,3741,0,6921,5012,10004,0,6156,6017,0,3745,3741,10004,0,0,0,6761,8248,0,0,0,3741,0,0,2591,0,0,0,0,0,0],"sum_hessian":[2.19107812500000000e+03,1.59632129669189453e+01,2.17511499023437500e+03,1.43683576583862305e+01,1.59485554695129395e+00,2.16239721679687500e+03,1.27176828384399414e+01,8.75142669677734375e+00,5.61693096160888672e+00,1.37984762191772461e+01,2.14859863281250000e+03,1.19627356529235840e+00,1.15214090347290039e+01,3.28638029098510742e+00,5.46504688262939453e+00,1.23568511009216309e+00,1.25627918243408203e+01,1.25817394256591797e+01,2.13601708984375000e+03,9.65176963806152344e+00,1.86963927745819092e+00,1.34010994434356689e+00,1.94627022743225098e+00,3.88961672782897949e+00,1.57543015480041504e+00,1.47252883911132812e+01,2.12129174804687500e+03,1.06972396373748779e+00,8.58204555511474609e+00,2.07957053184509277e+00,1.81004619598388672e+00,7.95267629623413086e+00,2.11333911132812500e+03],"tree_param":{"num_deleted":"0","num_feature":"11623","num_nodes":"33","size_leaf_vector":"0"}},{"base_weights":[-4.70331944525241852e-02,1.69353926181793213e+00,-5.82212843000888824e-02,5.09375214576721191e-01,1.74560940265655518e+00,-6.93902596831321716e-02,1.70989489555358887e+00,-8.07253345847129822e-02,1.69614827632904053e+00,1.81517601013183594e+00,-9.14461314678192139e-02,6.20843470096588135e-01,1.79167449474334717e+00,1.83628475666046143e+00,-1.01989254355430603e-01,1.72242951393127441e+00,-1.13070629537105560e-01],"default_left":[false,false,true,false,false,true,false,false,false,false,false,false,false,false,false,false,false],"id":38,"leaf_child_counts":[0,0,0,0,0,0,0,0,0,0,0,0,0,0,0,0,0],"left_children":[1,3,5,-1,-1,7,-1,9,11,-1,13,-1,-1,-1,15,-1,-1],"loss_changes":[5.20382461547851562e+01,1.63223266601562500e-01,5.24727668762207031e+01,0.00000000000000000e+00,0.00000000000000000e+00,5.28783493041992188e+01,0.00000000000000000e+00,5.34101219177246094e+01,6.19235992431640625e-01,0.00000000000000000e+00,5.31480827331542969e+01,0.00000000000000000e+00,0.00000000000000000e+00,0.00000000000000000e+00,5.26087646484375000e+01,0.00000000000000000e+00,0.00000000000000000e+00],"parents":[2147483647,0,0,1,1,2,2,5,5,7,7,8,8,10,10,14,14],"right_children":[2,4,6,-1,-1,8,-1,10,12,-1,14,-1,-1,-1,16,-1,-1],"split_conditions":[1.72321510314941406e+00,3.63069295883178711e-01,2.01100543141365051e-01,1.01875044405460358e-01,3.49121898412704468e-01,1.93973541259765625e-01,3.41978996992111206e-01,1.95514917373657227e+00,1.11325964331626892e-01,3.63035202026367188e-01,1.95585846900939941e+00,1.24168694019317627e-01,3.58334898948669434e-01,3.67256969213485718e-01,1.43484187126159668e+00,3.44485908746719360e-01,-2.26141270250082016e-02],"split_indices":[2269,10411,5429,0,0,1185,0,11510,3745,0,2881,0,0,0,5245,0,0],"sum_hessian":[2.66617089843750000e+03,1.60678424835205078e+01,2.65010302734375000e+03,1.13093411922454834e+00,1.49369087219238281e+01,